{"learner":{"attributes":{"scikit_learn":"{\"_estimator_type\": \"classifier\"}"},"feature_names":["gender","SeniorCitizen","Partner","Dependents","tenure","PhoneService","PaperlessBilling","MonthlyCharges","TotalCharges","TotalFeatures","featurePerCharged","Contract_Month-to-month","Contract_One year","Contract_Two year","PaymentMethod_Bank transfer (automatic)","PaymentMethod_Credit card (automatic)","PaymentMethod_Electronic check","PaymentMethod_Mailed check","MultipleLines_No","MultipleLines_No phone service","MultipleLines_Yes","InternetService_DSL","InternetService_Fiber optic","InternetService_No","OnlineSecurity_No","OnlineSecurity_No internet service","OnlineSecurity_Yes","OnlineBackup_No","OnlineBackup_No internet service","OnlineBackup_Yes","DeviceProtection_No","DeviceProtection_No internet service","DeviceProtection_Yes","TechSupport_No","TechSupport_No internet service","TechSupport_Yes","StreamingTV_No","StreamingTV_No internet service","StreamingTV_Yes","StreamingMovies_No","StreamingMovies_No internet service","StreamingMovies_Yes","tenure_std_bins_1","tenure_std_bins_2","tenure_std_bins_3","tenure_std_bins_4","high_charge_flag","low_fpc"],"feature_types":["int","int","int","int","float","int","int","float","float","int","float","i","i","i","i","i","i","i","i","i","i","i","i","i","i","i","i","i","i","i","i","i","i","i","i","i","i","i","i","i","i","i","i","i","i","i","int","int"],"gradient_booster":{"model":{"gbtree_model_param":{"num_parallel_tree":"1","num_trees":"100"},"iteration_indptr":[0,1,2,3,4,5,6,7,8,9,10,11,12,13,14,15,16,17,18,19,20,21,22,23,24,25,26,27,28,29,30,31,32,33,34,35,36,37,38,39,40,41,42,43,44,45,46,47,48,49,50,51,52,53,54,55,56,57,58,59,60,61,62,63,64,65,66,67,68,69,70,71,72,73,74,75,76,77,78,79,80,81,82,83,84,85,86,87,88,89,90,91,92,93,94,95,96,97,98,99,100],"tree_info":[0,0,0,0,0,0,0,0,0,0,0,0,0,0,0,0,0,0,0,0,0,0,0,0,0,0,0,0,0,0,0,0,0,0,0,0,0,0,0,0,0,0,0,0,0,0,0,0,0,0,0,0,0,0,0,0,0,0,0,0,0,0,0,0,0,0,0,0,0,0,0,0,0,0,0,0,0,0,0,0,0,0,0,0,0,0,0,0,0,0,0,0,0,0,0,0,0,0,0,0],"trees":[{"base_weights":[-0E0,-1.4450109E0,7.162455E-1,-1.6937028E0,-7.921569E-1,9.118541E-2,1.1595187E0,-1.8185353E0,-1.2466367E0,-1.4250765E0,-3.167421E-1,-2.6007605E-1,5.564516E-1,3.966597E-1,1.2899494E0,-5.6390977E-1,-1.668737E0,-1.3674419E0,4.8000002E-1,-1.1813953E0,-5.482759E-1,-6.1971832E-2,-1.2967033E0,5.5021834E-1,-6.8989545E-1,1.2680413E0,9.8684214E-2,-1.6842106E-1,7.5767916E-1,1.3537389E0,3.915344E-1,-1.7542373E0,4.4000003E-1,-1.5354108E0,-5.6790125E-1,-1.5809524E0,-7.719298E-1,2E-1,-9.8734176E-1,-1.6129032E0,-5.4545456E-1,2.6153848E-1,9.108911E-1,-7.4733096E-1,4.909091E-1,1.4710743E0,9.066667E-1,-4.084507E-1,5.365854E-1,-3.5428572E-1,4.7368425E-1,9.90991E-1,2.6666667E-2,1.4176245E0,6.9491524E-1,-2.5882354E-1,8.888889E-1,-5.619048E-1,-4.434783E-1,-4.9606302E-1,-3.5533983E-1,-4.1818184E-1,-0E0,-5.04E-1,6.666667E-2,2.4E-2,-4.0588236E-1,-3.714286E-1,9.353612E-2,-3.923077E-1,-9.67742E-2,-2.0000002E-1,-5.1111114E-1,2.0000002E-1,-2.5714287E-1,1.5140188E-1,-2.4000001E-1,2.9839572E-1,-3.157895E-2,-2.3710845E-1,4.5882356E-1,4.5981312E-1,2.6250002E-1,-6.666667E-2,3.0882356E-1,7.777778E-2,-2.4000001E-1,-6.9767445E-2,2.390244E-1,-4.0000003E-2,-4.3448275E-1,3.166667E-1,-2.4000001E-1,-9.375E-2,4.4000003E-1,4.6815023E-1,3.5606557E-1,3.7411767E-1,1.1225807E-1,1.3846155E-1,-3.7297297E-1,3.267327E-1,-3.818182E-1],"categories":[],"categories_nodes":[],"categories_segments":[],"categories_sizes":[],"default_left":[0,0,0,0,0,0,0,0,0,0,0,0,0,0,0,0,0,0,0,0,0,0,0,0,0,0,0,0,0,0,0,0,0,0,0,0,0,0,0,0,0,0,0,0,0,0,0,0,0,0,0,0,0,0,0,0,0,0,0,0,0,0,0,0,0,0,0,0,0,0,0,0,0,0,0,0,0,0,0,0,0,0,0,0,0,0,0,0,0,0,0,0,0,0,0,0,0,0,0,0,0,0,0],"id":0,"left_children":[1,3,5,7,9,11,13,15,17,19,21,23,25,27,29,-1,31,33,-1,35,-1,37,39,41,43,45,47,49,51,53,55,57,-1,59,61,63,65,67,69,71,73,75,77,79,-1,81,83,85,87,89,-1,91,93,95,97,99,101,-1,-1,-1,-1,-1,-1,-1,-1,-1,-1,-1,-1,-1,-1,-1,-1,-1,-1,-1,-1,-1,-1,-1,-1,-1,-1,-1,-1,-1,-1,-1,-1,-1,-1,-1,-1,-1,-1,-1,-1,-1,-1,-1,-1,-1,-1],"loss_changes":[2.1439663E3,1.1011804E2,3.8363953E2,2.5427856E1,5.709561E1,9.423959E1,8.01084E1,3.97583E-1,4.0531433E1,5.859268E0,2.7507618E1,1.1487673E2,8.065902E1,2.4557228E1,3.9099365E1,0E0,3.4943268E1,1.3565079E1,0E0,7.573372E0,0E0,2.1712318E1,4.5243797E0,1.1683388E1,2.9982422E1,5.783203E0,3.3974564E1,1.5986166E1,1.2466644E1,2.6173096E1,1.5513476E1,1.0992432E0,0E0,1.7001038E0,9.499439E0,5.0615845E0,1.4215191E1,1.1639254E1,3.7840576E0,1.959343E-1,3.6883116E0,1.7180014E1,4.402977E0,2.1855827E1,0E0,8.816376E-1,5.424967E0,1.8769745E1,1.6593685E1,1.0382135E1,0E0,7.2621613E0,9.615833E0,1.7507935E1,9.98134E0,1.5642999E1,1.3071707E1,0E0,0E0,0E0,0E0,0E0,0E0,0E0,0E0,0E0,0E0,0E0,0E0,0E0,0E0,0E0,0E0,0E0,0E0,0E0,0E0,0E0,0E0,0E0,0E0,0E0,0E0,0E0,0E0,0E0,0E0,0E0,0E0,0E0,0E0,0E0,0E0,0E0,0E0,0E0,0E0,0E0,0E0,0E0,0E0,0E0,0E0],"parents":[2147483647,0,0,1,1,2,2,3,3,4,4,5,5,6,6,7,7,8,8,9,9,10,10,11,11,12,12,13,13,14,14,16,16,17,17,19,19,21,21,22,22,23,23,24,24,25,25,26,26,27,27,28,28,29,29,30,30,31,31,33,33,34,34,35,35,36,36,37,37,38,38,39,39,40,40,41,41,42,42,43,43,45,45,46,46,47,47,48,48,49,49,51,51,52,52,53,53,54,54,55,55,56,56],"right_children":[2,4,6,8,10,12,14,16,18,20,22,24,26,28,30,-1,32,34,-1,36,-1,38,40,42,44,46,48,50,52,54,56,58,-1,60,62,64,66,68,70,72,74,76,78,80,-1,82,84,86,88,90,-1,92,94,96,98,100,102,-1,-1,-1,-1,-1,-1,-1,-1,-1,-1,-1,-1,-1,-1,-1,-1,-1,-1,-1,-1,-1,-1,-1,-1,-1,-1,-1,-1,-1,-1,-1,-1,-1,-1,-1,-1,-1,-1,-1,-1,-1,-1,-1,-1,-1,-1],"split_conditions":[1E0,8.690387E-1,1E0,1E0,1E0,1E0,1E0,1E0,1E0,1.6084834E0,1E0,-1.2002122E0,-7.9315495E-1,1E0,5.4241765E-1,-5.6390977E-1,1E0,1E0,4.8000002E-1,1.0735488E0,-5.482759E-1,1E0,1E0,1E0,1E0,1E0,1E0,1E0,3.622899E-1,1E0,1E0,1E0,4.4000003E-1,1E0,1E0,6.9390976E-1,1.1329205E0,1E0,1.0735488E0,3.8731137E-1,1E0,-2.1497877E0,-2.4672562E-2,1E0,4.909091E-1,1E0,1E0,5.095759E-1,1E0,1E0,4.7368425E-1,9.5719165E-1,1E0,-7.9315495E-1,-1.0902395E0,1E0,1E0,-5.619048E-1,-4.434783E-1,-4.9606302E-1,-3.5533983E-1,-4.1818184E-1,-0E0,-5.04E-1,6.666667E-2,2.4E-2,-4.0588236E-1,-3.714286E-1,9.353612E-2,-3.923077E-1,-9.67742E-2,-2.0000002E-1,-5.1111114E-1,2.0000002E-1,-2.5714287E-1,1.5140188E-1,-2.4000001E-1,2.9839572E-1,-3.157895E-2,-2.3710845E-1,4.5882356E-1,4.5981312E-1,2.6250002E-1,-6.666667E-2,3.0882356E-1,7.777778E-2,-2.4000001E-1,-6.9767445E-2,2.390244E-1,-4.0000003E-2,-4.3448275E-1,3.166667E-1,-2.4000001E-1,-9.375E-2,4.4000003E-1,4.6815023E-1,3.5606557E-1,3.7411767E-1,1.1225807E-1,1.3846155E-1,-3.7297297E-1,3.267327E-1,-3.818182E-1],"split_indices":[11,7,16,24,12,22,24,15,26,4,3,4,4,27,10,0,17,17,0,7,0,1,27,33,12,0,41,15,10,3,33,12,0,16,41,10,7,41,7,4,2,8,7,13,0,1,24,7,38,47,0,4,29,4,4,0,3,0,0,0,0,0,0,0,0,0,0,0,0,0,0,0,0,0,0,0,0,0,0,0,0,0,0,0,0,0,0,0,0,0,0,0,0,0,0,0,0,0,0,0,0,0,0],"split_type":[0,0,0,0,0,0,0,0,0,0,0,0,0,0,0,0,0,0,0,0,0,0,0,0,0,0,0,0,0,0,0,0,0,0,0,0,0,0,0,0,0,0,0,0,0,0,0,0,0,0,0,0,0,0,0,0,0,0,0,0,0,0,0,0,0,0,0,0,0,0,0,0,0,0,0,0,0,0,0,0,0,0,0,0,0,0,0,0,0,0,0,0,0,0,0,0,0,0,0,0,0,0,0],"sum_hessian":[2.0695E3,6.855E2,1.384E3,4.9525E2,1.9025E2,5.7475E2,8.0925E2,3.8475E2,1.105E2,8.075E1,1.095E2,3.2775E2,2.47E2,1.1875E2,6.905E2,2.65E2,1.1975E2,1.065E2,4E0,5.275E1,2.8E1,8.775E1,2.175E1,1.135E2,2.1425E2,9.6E1,1.51E2,4.65E1,7.225E1,6.4425E2,4.625E1,1.17E2,2.75E0,8.725E1,1.925E1,2.525E1,2.75E1,6.9E1,1.875E1,1.45E1,7.25E0,6.4E1,4.95E1,2.0975E2,4.5E0,5.95E1,3.65E1,7E1,8.1E1,4.275E1,3.75E0,5.45E1,1.775E1,5.8625E2,5.8E1,2.025E1,2.6E1,7.775E1,3.925E1,6.25E1,2.475E1,7.25E0,1.2E1,2.4E1,1.25E0,1.15E1,1.6E1,4.25E0,6.475E1,1.2E1,6.75E0,2E0,1.25E1,1.25E0,6E0,5.25E1,1.15E1,4.575E1,3.75E0,2.065E2,3.25E0,5.25E1,7E0,3.5E0,3.3E1,2.6E1,4.4E1,2.05E1,6.05E1,3.65E1,6.25E0,5.3E1,1.5E0,1.5E1,2.75E0,3.585E2,2.2775E2,2.025E1,3.775E1,1.2E1,8.25E0,2.425E1,1.75E0],"tree_param":{"num_deleted":"0","num_feature":"48","num_nodes":"103","size_leaf_vector":"1"}},{"base_weights":[-1.9055303E-3,-1.0897748E0,5.220492E-1,-1.4043114E0,-7.671422E-1,6.906579E-2,8.498335E-1,-4.307981E-1,-1.09568E0,-1.2675071E0,-3.069419E-1,-3.3565748E-1,3.4890872E-1,2.1017702E-1,9.481619E-1,-1.3064651E0,-4.7000572E-1,-8.7183887E-1,-1.4477268E0,-3.9790472E-1,5.2122134E-1,3.8832787E-1,-5.507292E-1,2.526151E-1,5.530321E-1,6.4049804E-1,-5.639095E-1,1.0169502E0,2.994227E-1,-5.857272E-1,-4.0856096E-1,1.1953309E-1,-7.3827934E-1,-9.8063815E-1,1.2192704E-1,-4.5271528E-1,-9.921165E-1,-4.491889E-1,4.6613094E-1,-8.6380565E-1,5.4079187E-1,-6.082994E-1,4.2808726E-1,7.517879E-1,-9.0217285E-2,7.389853E-1,-4.7517213E-1,-1.121253E0,4.5343284E-2,1.1714436E0,8.3038783E-1,-5.615206E-1,5.052718E-1,-2.734868E-1,1.2106902E-2,-2.623516E-1,2.4702226E-1,-8.199594E-3,-2.6316106E-1,-1.5754819E-1,-3.5098147E-1,1.9442202E-1,-2.7553776E-1,-3.6922973E-1,-4.556187E-2,-8.444364E-2,-2.7902788E-1,-4.3720105E-1,1.2771432E-1,2.277054E-1,-6.9784276E-2,-9.837486E-2,-2.8623682E-1,2.4902841E-1,-1.5276015E-1,-1.853536E-1,4.5416135E-2,8.6359814E-2,3.130625E-1,-4.7323853E-2,-3.529662E-1,3.1476343E-1,-7.496403E-2,3.0428553E-1,3.9976045E-1,1.4128767E-1,3.0011374E-1,7.98132E-2,-3.7229943E-1,2.3021479E-1,-7.431619E-2],"categories":[],"categories_nodes":[],"categories_segments":[],"categories_sizes":[],"default_left":[0,0,0,0,0,0,0,0,0,0,0,0,0,0,0,0,0,0,0,0,0,0,0,0,0,0,0,0,0,0,0,0,0,0,0,0,0,0,0,0,0,0,0,0,0,0,0,0,0,0,0,0,0,0,0,0,0,0,0,0,0,0,0,0,0,0,0,0,0,0,0,0,0,0,0,0,0,0,0,0,0,0,0,0,0,0,0,0,0,0,0],"id":1,"left_children":[1,3,5,7,9,11,13,-1,15,17,19,21,23,25,27,29,31,33,35,37,-1,39,41,43,-1,45,47,49,51,53,-1,55,57,59,61,-1,63,65,-1,67,69,71,-1,73,75,77,-1,79,81,83,85,87,89,-1,-1,-1,-1,-1,-1,-1,-1,-1,-1,-1,-1,-1,-1,-1,-1,-1,-1,-1,-1,-1,-1,-1,-1,-1,-1,-1,-1,-1,-1,-1,-1,-1,-1,-1,-1,-1,-1],"loss_changes":[1.1360918E3,6.4673035E1,1.9968509E2,1.6228027E0,7.376779E1,6.420529E1,4.8884705E1,0E0,3.9557457E0,9.716995E0,3.213249E1,3.631104E1,4.774984E1,3.5425163E1,2.9868286E1,2.1486282E-1,1.7162743E0,5.601063E0,1.416214E0,1.698122E1,0E0,1.0715164E1,2.126456E1,5.413024E1,0E0,1.609445E1,1.3002237E1,1.6634827E1,1.2022526E1,7.6413155E-1,0E0,3.5747025E0,6.8851185E-1,3.3350372E0,3.8205833E0,0E0,2.8789024E0,1.2585873E1,0E0,5.374825E0,8.357082E0,1.6634094E1,0E0,1.3134346E1,2.4081703E1,8.755882E0,0E0,8.778305E-1,5.947423E0,7.0468445E0,1.6646591E1,7.7834706E0,1.0844431E1,0E0,0E0,0E0,0E0,0E0,0E0,0E0,0E0,0E0,0E0,0E0,0E0,0E0,0E0,0E0,0E0,0E0,0E0,0E0,0E0,0E0,0E0,0E0,0E0,0E0,0E0,0E0,0E0,0E0,0E0,0E0,0E0,0E0,0E0,0E0,0E0,0E0,0E0],"parents":[2147483647,0,0,1,1,2,2,3,3,4,4,5,5,6,6,8,8,9,9,10,10,11,11,12,12,13,13,14,14,15,15,16,16,17,17,18,18,19,19,21,21,22,22,23,23,25,25,26,26,27,27,28,28,29,29,31,31,32,32,33,33,34,34,36,36,37,37,39,39,40,40,41,41,43,43,44,44,45,45,47,47,48,48,49,49,50,50,51,51,52,52],"right_children":[2,4,6,8,10,12,14,-1,16,18,20,22,24,26,28,30,32,34,36,38,-1,40,42,44,-1,46,48,50,52,54,-1,56,58,60,62,-1,64,66,-1,68,70,72,-1,74,76,78,-1,80,82,84,86,88,90,-1,-1,-1,-1,-1,-1,-1,-1,-1,-1,-1,-1,-1,-1,-1,-1,-1,-1,-1,-1,-1,-1,-1,-1,-1,-1,-1,-1,-1,-1,-1,-1,-1,-1,-1,-1,-1,-1],"split_conditions":[1E0,1E0,1E0,1E0,1E0,1E0,1E0,-4.307981E-1,6.532626E-1,6.9390976E-1,1E0,-2.1497877E0,1E0,1E0,1E0,-8.2039875E-1,1E0,6.5305597E-1,1E0,1E0,5.2122134E-1,1E0,1E0,-9.966836E-1,5.530321E-1,9.164859E-1,5.095759E-1,-8.745664E-1,-1.7099968E-1,-1.6741786E0,-4.0856096E-1,1E0,7.094448E-1,1E0,1.6084834E0,-4.5271528E-1,1E0,1E0,4.6613094E-1,1E0,-5.783607E-1,1E0,4.2808726E-1,6.436974E-1,1E0,1E0,-4.7517213E-1,-2.4853094E0,-1.9447806E-1,5.494002E-1,1E0,-1.0902395E0,6.525249E-1,-2.734868E-1,1.2106902E-2,-2.623516E-1,2.4702226E-1,-8.199594E-3,-2.6316106E-1,-1.5754819E-1,-3.5098147E-1,1.9442202E-1,-2.7553776E-1,-3.6922973E-1,-4.556187E-2,-8.444364E-2,-2.7902788E-1,-4.3720105E-1,1.2771432E-1,2.277054E-1,-6.9784276E-2,-9.837486E-2,-2.8623682E-1,2.4902841E-1,-1.5276015E-1,-1.853536E-1,4.5416135E-2,8.6359814E-2,3.130625E-1,-4.7323853E-2,-3.529662E-1,3.1476343E-1,-7.496403E-2,3.0428553E-1,3.9976045E-1,1.4128767E-1,3.0011374E-1,7.98132E-2,-3.7229943E-1,2.3021479E-1,-7.431619E-2],"split_indices":[11,41,16,16,12,24,33,0,7,10,13,8,26,0,3,4,6,10,33,39,0,17,12,4,0,4,7,4,7,7,0,33,7,2,4,0,16,3,0,2,10,0,0,10,22,30,0,8,8,7,20,4,8,0,0,0,0,0,0,0,0,0,0,0,0,0,0,0,0,0,0,0,0,0,0,0,0,0,0,0,0,0,0,0,0,0,0,0,0,0,0],"split_type":[0,0,0,0,0,0,0,0,0,0,0,0,0,0,0,0,0,0,0,0,0,0,0,0,0,0,0,0,0,0,0,0,0,0,0,0,0,0,0,0,0,0,0,0,0,0,0,0,0,0,0,0,0,0,0,0,0,0,0,0,0,0,0,0,0,0,0,0,0,0,0,0,0,0,0,0,0,0,0,0,0,0,0,0,0,0,0,0,0,0,0],"sum_hessian":[1.9911654E3,6.4691595E2,1.3442495E3,3.258703E2,3.2104565E2,5.648553E2,7.793942E2,2.9221994E2,3.365037E1,1.5297037E2,1.680753E2,2.3082494E2,3.3403033E2,1.0426383E2,6.751304E2,2.4356688E1,9.293682E0,4.9697765E1,1.032726E2,1.6168645E2,6.388847E0,5.268121E1,1.7814372E2,3.1490955E2,1.91208E1,6.7122475E1,3.7141357E1,6.0989343E2,6.5236984E1,2.5647411E0,2.1791946E1,3.0799165E0,6.213766E0,4.480558E1,4.8921847E0,8.89835E1,1.4289097E1,1.5829674E2,3.3897197E0,5.2119164E0,4.746929E1,1.7377751E2,4.3662195E0,1.2773345E2,1.8717609E2,6.4916046E1,2.2064252E0,1.895812E1,1.8183235E1,3.3073285E2,2.7916055E2,1.2254774E1,5.298221E1,1.3867989E0,1.1779424E0,1.1762933E0,1.9036232E0,1.2113576E0,5.0024085E0,1.426253E1,3.054305E1,3.499496E0,1.392689E0,1.0766408E1,3.5226889E0,1.1854185E2,3.9754883E1,3.480019E0,1.7318971E0,3.7037346E1,1.0431945E1,9.704474E1,7.6732765E1,1.2058678E2,7.1466737E0,5.8300095E1,1.2887599E2,2.6946766E1,3.7969284E1,1.2381632E0,1.7719957E1,3.5518117E0,1.4631423E1,1.7110315E2,1.596297E2,9.084615E1,1.883144E2,5.7996235E0,6.4551506E0,3.928744E1,1.3694767E1],"tree_param":{"num_deleted":"0","num_feature":"48","num_nodes":"91","size_leaf_vector":"1"}},{"base_weights":[-4.335525E-3,-8.763146E-1,3.9241612E-1,-1.0413666E0,-3.352862E-1,3.5952975E-3,6.4143133E-1,-1.1658797E0,-6.932141E-1,-1.00573644E-1,-1.0383277E0,4.0514398E-1,-2.57885E-1,9.165891E-1,3.7842306E-1,-1.2297271E0,-1.0199506E0,-7.7648675E-1,3.9911363E-1,1.0945398E-1,-8.5044503E-1,-1.1893785E0,-4.6654972E-1,3.4658998E-1,4.891965E-1,-3.2184672E-1,4.3123418E-1,1.1965435E0,8.041428E-1,3.5438463E-2,5.74294E-1,-3.8379005E-1,-9.272966E-1,-1.0932298E0,4.0208793E-1,-1.1692904E0,-6.0018355E-1,2.9596806E-1,-8.05082E-1,-5.7563566E-2,-1.0828512E0,-3.7543815E-1,-5.4861253E-1,-2.7565247E-1,-4.8634414E-2,5.442703E-2,5.700849E-1,-1.170428E-1,-7.437388E-1,-5.5821493E-2,1.2329137E0,4.0914667E-1,9.49163E-1,-3.7669424E-2,4.2691493E-1,5.0938755E-1,4.3967205E-1,-3.449998E-1,-1.356878E-1,-3.6206737E-1,-2.2609559E-1,-1.4899503E-1,-3.6315283E-1,-1.9735065E-1,3.668221E-1,-2.5480247E-1,1.3913046E-1,-4.353002E-1,1.1413887E-1,-2.0098068E-1,1.0386129E-1,-8.519088E-2,-3.4654045E-1,-6.599285E-2,-2.2198935E-1,-2.2513959E-1,1.3075893E-1,9.534539E-2,-1.1365765E-1,1.8712957E-1,-1.3263464E-1,-1.4695665E-1,5.7641227E-2,-3.913384E-2,-2.8966004E-1,-1.5377343E-1,1.4285803E-1,3.768057E-1,3.8959704E-2,5.631328E-2,2.0852925E-1,2.2171997E-1,3.311212E-1,-1.9330443E-1,3.820552E-2,1.3209768E-1,4.5046598E-1],"categories":[],"categories_nodes":[],"categories_segments":[],"categories_sizes":[],"default_left":[0,0,0,0,0,0,0,0,0,0,0,0,0,0,0,0,0,0,0,0,0,0,0,0,0,0,0,0,0,0,0,0,0,0,0,0,0,0,0,0,0,0,0,0,0,0,0,0,0,0,0,0,0,0,0,0,0,0,0,0,0,0,0,0,0,0,0,0,0,0,0,0,0,0,0,0,0,0,0,0,0,0,0,0,0,0,0,0,0,0,0,0,0,0,0,0,0],"id":2,"left_children":[1,3,5,7,9,11,13,15,17,19,21,23,25,27,29,31,33,35,-1,37,39,41,43,45,-1,47,-1,49,51,53,55,-1,57,59,-1,61,63,65,67,69,71,-1,73,-1,75,77,79,81,83,85,87,89,91,93,-1,95,-1,-1,-1,-1,-1,-1,-1,-1,-1,-1,-1,-1,-1,-1,-1,-1,-1,-1,-1,-1,-1,-1,-1,-1,-1,-1,-1,-1,-1,-1,-1,-1,-1,-1,-1,-1,-1,-1,-1,-1,-1],"loss_changes":[6.428599E2,5.1540466E1,1.2365112E2,1.8472687E1,2.2553158E1,5.2561043E1,5.599347E1,1.7844849E0,2.1192371E1,1.6480028E1,2.4040413E0,1.3601223E1,3.3338684E1,1.0992828E1,2.6835087E1,2.1422424E0,1.9647667E1,7.299385E0,0E0,1.4254036E1,4.1537704E0,3.6581802E-1,1.619595E0,1.2354826E1,0E0,2.5227686E1,0E0,4.932373E0,1.5306503E1,1.4902401E1,1.3969109E1,0E0,3.171873E0,3.047081E0,0E0,3.6190796E-1,9.401024E0,1.365077E1,1.1416599E1,1.7754159E0,6.9047546E-1,0E0,9.614372E-2,0E0,2.2422485E0,9.628989E0,6.109577E0,2.2965162E1,1.287233E1,1.208826E0,2.4825287E0,4.6398582E0,5.6681213E0,1.4100212E1,0E0,1.569083E1,0E0,0E0,0E0,0E0,0E0,0E0,0E0,0E0,0E0,0E0,0E0,0E0,0E0,0E0,0E0,0E0,0E0,0E0,0E0,0E0,0E0,0E0,0E0,0E0,0E0,0E0,0E0,0E0,0E0,0E0,0E0,0E0,0E0,0E0,0E0,0E0,0E0,0E0,0E0,0E0,0E0],"parents":[2147483647,0,0,1,1,2,2,3,3,4,4,5,5,6,6,7,7,8,8,9,9,10,10,11,11,12,12,13,13,14,14,15,15,16,16,17,17,19,19,20,20,21,21,22,22,23,23,25,25,27,27,28,28,29,29,30,30,32,32,33,33,35,35,36,36,37,37,38,38,39,39,40,40,42,42,44,44,45,45,46,46,47,47,48,48,49,49,50,50,51,51,52,52,53,53,55,55],"right_children":[2,4,6,8,10,12,14,16,18,20,22,24,26,28,30,32,34,36,-1,38,40,42,44,46,-1,48,-1,50,52,54,56,-1,58,60,-1,62,64,66,68,70,72,-1,74,-1,76,78,80,82,84,86,88,90,92,94,-1,96,-1,-1,-1,-1,-1,-1,-1,-1,-1,-1,-1,-1,-1,-1,-1,-1,-1,-1,-1,-1,-1,-1,-1,-1,-1,-1,-1,-1,-1,-1,-1,-1,-1,-1,-1,-1,-1,-1,-1,-1,-1],"split_conditions":[1E0,9.745556E-1,1E0,1E0,1.5677776E0,-1.1595066E0,-7.524492E-1,1E0,1E0,1E0,1E0,-1.1919488E0,1E0,-1.240918E0,1E0,1E0,1E0,1E0,3.9911363E-1,6.7499316E-1,7.1295726E-1,1.2306639E0,1E0,1E0,4.891965E-1,1E0,4.3123418E-1,1E0,5.7281595E-1,1E0,1E0,-3.8379005E-1,1E0,1E0,4.0208793E-1,-4.2896214E-1,1E0,-3.725005E-2,1.2602248E0,1E0,1.0260214E0,-3.7543815E-1,1E0,-2.7565247E-1,1E0,-2.363637E0,7.604579E-2,1E0,1E0,-1.5866873E0,1E0,-1.4216688E0,1E0,1E0,4.2691493E-1,1E0,4.3967205E-1,-3.449998E-1,-1.356878E-1,-3.6206737E-1,-2.2609559E-1,-1.4899503E-1,-3.6315283E-1,-1.9735065E-1,3.668221E-1,-2.5480247E-1,1.3913046E-1,-4.353002E-1,1.1413887E-1,-2.0098068E-1,1.0386129E-1,-8.519088E-2,-3.4654045E-1,-6.599285E-2,-2.2198935E-1,-2.2513959E-1,1.3075893E-1,9.534539E-2,-1.1365765E-1,1.8712957E-1,-1.3263464E-1,-1.4695665E-1,5.7641227E-2,-3.913384E-2,-2.8966004E-1,-1.5377343E-1,1.4285803E-1,3.768057E-1,3.8959704E-2,5.631328E-2,2.0852925E-1,2.2171997E-1,3.311212E-1,-1.9330443E-1,3.820552E-2,1.3209768E-1,4.5046598E-1],"split_indices":[11,7,22,24,4,4,4,15,26,3,16,4,12,4,16,16,17,12,0,10,4,7,24,33,0,2,0,33,7,12,15,0,27,36,0,10,13,10,8,2,7,0,3,0,2,8,7,27,5,8,15,10,20,33,0,14,0,0,0,0,0,0,0,0,0,0,0,0,0,0,0,0,0,0,0,0,0,0,0,0,0,0,0,0,0,0,0,0,0,0,0,0,0,0,0,0,0],"split_type":[0,0,0,0,0,0,0,0,0,0,0,0,0,0,0,0,0,0,0,0,0,0,0,0,0,0,0,0,0,0,0,0,0,0,0,0,0,0,0,0,0,0,0,0,0,0,0,0,0,0,0,0,0,0,0,0,0,0,0,0,0,0,0,0,0,0,0,0,0,0,0,0,0,0,0,0,0,0,0,0,0,0,0,0,0,0,0,0,0,0,0,0,0,0,0,0,0],"sum_hessian":[1.8562023E3,5.80085E2,1.2761172E3,4.437769E2,1.3630817E2,4.9860028E2,7.775169E2,3.2514383E2,1.1863306E2,1.0304824E2,3.325992E1,1.964175E2,3.021828E2,3.7876752E2,3.987494E2,2.2101685E2,1.0412697E2,1.1453608E2,4.0969796E0,8.1168274E1,2.1879969E1,2.545511E1,7.8048086E0,1.8868507E2,7.7324166E0,2.919772E2,1.0205599E1,1.05776855E2,2.7299066E2,1.4537239E2,2.53377E2,1.8711569E2,3.390116E1,1.0151211E2,2.6148612E0,3.3737236E1,8.079884E1,6.7980446E1,1.3187826E1,5.2424393E0,1.663753E1,2.2337797E1,3.1173131E0,3.1726043E0,4.6322045E0,8.231829E1,1.06366776E2,1.9741916E2,9.455804E1,2.9701004E0,1.02806755E2,7.433729E1,1.9865338E2,1.3902077E2,6.351616E0,2.3764249E2,1.5734518E1,2.2112717E1,1.1788444E1,7.414175E1,2.7370358E1,2.7014906E0,3.1035744E1,7.894137E1,1.8574764E0,8.168079E0,5.981237E1,8.391816E0,4.79601E0,1.8211673E0,3.4212718E0,1.7894136E0,1.4848116E1,1.938182E0,1.1791313E0,1.6676021E0,2.9646025E0,5.1362152E1,3.095614E1,1.0137431E2,4.9924626E0,8.923469E1,1.0818446E2,2.5535898E1,6.902214E1,1.6177393E0,1.352361E0,1.0056164E2,2.2451162E0,4.2828228E1,3.1509056E1,8.6654465E1,1.1199891E2,2.9107227E1,1.0991354E2,2.2352716E2,1.4115321E1],"tree_param":{"num_deleted":"0","num_feature":"48","num_nodes":"97","size_leaf_vector":"1"}},{"base_weights":[-5.410907E-3,-7.2578555E-1,2.9945403E-1,-1.0345132E0,-4.5610386E-1,-1.3746886E-1,4.6144414E-1,-1.0681348E0,-7.43603E-1,-9.0009946E-1,-1.1578325E-1,-1.7218884E-2,-5.82831E-1,1.8961059E-1,6.115711E-1,-3.457778E-1,-9.507933E-1,-9.525231E-1,-2.1014819E-1,-5.7236135E-1,-1.0773752E0,-1.7782272E-1,3.9898604E-1,-1.4448415E-1,9.824E-1,-7.6790154E-1,3.6986962E-1,1.1396076E-1,4.357032E-1,5.717661E-1,4.100335E-1,-1.0863314E0,-5.2267486E-1,-3.3298734E-1,-1.0102135E0,2.9302066E-2,-2.512218E-1,-1.0389013E0,-3.582372E-1,-1.1520487E0,-5.949081E-1,-2.1693753E-1,3.9251095E-1,1.3428247E-1,-3.3275884E-1,-2.139906E-1,1.070547E0,1.2964712E-1,-9.504428E-1,3.326097E-1,-1.8868285E-1,5.3259206E-1,4.0485096E-1,-1.1955014E-1,-3.4583005E-1,-2.221821E-1,5.3347254E-1,-2.0861125E-1,5.8602296E-2,-8.237325E-2,-3.147244E-1,-9.994868E-2,2.2781451E-1,5.3549506E-2,-3.5150558E-1,1.1791132E-1,-1.7251913E-1,-5.69396E-2,-3.4951675E-1,-2.5440946E-1,2.9566599E-2,-2.1184696E-1,-2.6597118E-2,2.7835662E-2,3.5969055E-1,-1.6054595E-1,1.1084946E-1,3.4736535E-1,-1.620002E-1,-1.6408893E-1,2.8393525E-1,-3.0548114E-1,1.2463113E-1,4.3705087E-2,1.8115187E-1,-1.7365924E-1,6.9339216E-2,2.7523768E-1,1.3180825E-1],"categories":[],"categories_nodes":[],"categories_segments":[],"categories_sizes":[],"default_left":[0,0,0,0,0,0,0,0,0,0,0,0,0,0,0,0,0,0,0,0,0,0,0,0,0,0,0,0,0,0,0,0,0,0,0,0,0,0,0,0,0,0,0,0,0,0,0,0,0,0,0,0,0,0,0,0,0,0,0,0,0,0,0,0,0,0,0,0,0,0,0,0,0,0,0,0,0,0,0,0,0,0,0,0,0,0,0,0,0],"id":3,"left_children":[1,3,5,7,9,11,13,15,17,19,21,23,25,27,29,-1,31,33,35,37,39,41,-1,43,45,47,-1,49,-1,51,-1,53,55,57,59,61,-1,63,65,67,69,71,-1,73,75,-1,77,79,81,83,85,87,-1,-1,-1,-1,-1,-1,-1,-1,-1,-1,-1,-1,-1,-1,-1,-1,-1,-1,-1,-1,-1,-1,-1,-1,-1,-1,-1,-1,-1,-1,-1,-1,-1,-1,-1,-1,-1],"loss_changes":[3.778659E2,4.2125183E1,8.5629715E1,1.5311737E0,4.142889E1,1.7543095E1,3.588594E1,9.9357605E-1,2.9118128E0,6.304245E0,1.4295792E1,3.3104866E1,2.435242E1,2.9955582E1,1.6289368E1,0E0,4.8837814E0,3.7063408E-1,1.3975117E0,4.0181637E0,2.0589447E0,9.072363E0,0E0,1.2153828E1,5.1566906E0,1.0580357E1,0E0,1.9820736E1,0E0,1.5768829E1,0E0,2.7590637E0,1.3611736E1,7.4406016E-1,2.1531105E-1,2.25937E0,0E0,2.3589458E0,5.381587E0,5.911026E-1,2.238604E0,9.235683E0,0E0,4.0294085E0,1.9811749E1,0E0,4.6113586E0,6.96543E0,5.347866E0,8.719002E0,2.0752401E1,1.81427E1,0E0,0E0,0E0,0E0,0E0,0E0,0E0,0E0,0E0,0E0,0E0,0E0,0E0,0E0,0E0,0E0,0E0,0E0,0E0,0E0,0E0,0E0,0E0,0E0,0E0,0E0,0E0,0E0,0E0,0E0,0E0,0E0,0E0,0E0,0E0,0E0,0E0],"parents":[2147483647,0,0,1,1,2,2,3,3,4,4,5,5,6,6,7,7,8,8,9,9,10,10,11,11,12,12,13,13,14,14,16,16,17,17,18,18,19,19,20,20,21,21,23,23,24,24,25,25,27,27,29,29,31,31,32,32,33,33,34,34,35,35,37,37,38,38,39,39,40,40,41,41,43,43,44,44,46,46,47,47,48,48,49,49,50,50,51,51],"right_children":[2,4,6,8,10,12,14,16,18,20,22,24,26,28,30,-1,32,34,36,38,40,42,-1,44,46,48,-1,50,-1,52,-1,54,56,58,60,62,-1,64,66,68,70,72,-1,74,76,-1,78,80,82,84,86,88,-1,-1,-1,-1,-1,-1,-1,-1,-1,-1,-1,-1,-1,-1,-1,-1,-1,-1,-1,-1,-1,-1,-1,-1,-1,-1,-1,-1,-1,-1,-1,-1,-1,-1,-1,-1,-1],"split_conditions":[1E0,1E0,1E0,1E0,1E0,-6.04517E-2,1E0,5.588433E-1,6.532626E-1,6.9390976E-1,1E0,8.146255E-1,1E0,1E0,1E0,-3.457778E-1,1E0,-8.2039875E-1,1.1170297E0,1.0321057E0,1E0,1E0,3.9898604E-1,-1.161324E0,-1.2341312E0,-5.345785E-1,3.6986962E-1,-6.30332E-1,4.357032E-1,1E0,4.100335E-1,7.0657957E-1,1E0,-8.751151E-1,1E0,1E0,-2.512218E-1,-3.218382E-1,1.2421318E0,-2.4270166E-1,1E0,1E0,3.9251095E-1,-1.1919488E0,1E0,-2.139906E-1,5.153113E-1,1E0,1.167097E0,3.946301E-1,1E0,-1.240918E0,4.0485096E-1,-1.1955014E-1,-3.4583005E-1,-2.221821E-1,5.3347254E-1,-2.0861125E-1,5.8602296E-2,-8.237325E-2,-3.147244E-1,-9.994868E-2,2.2781451E-1,5.3549506E-2,-3.5150558E-1,1.1791132E-1,-1.7251913E-1,-5.69396E-2,-3.4951675E-1,-2.5440946E-1,2.9566599E-2,-2.1184696E-1,-2.6597118E-2,2.7835662E-2,3.5969055E-1,-1.6054595E-1,1.1084946E-1,3.4736535E-1,-1.620002E-1,-1.6408893E-1,2.8393525E-1,-3.0548114E-1,1.2463113E-1,4.3705087E-2,1.8115187E-1,-1.7365924E-1,6.9339216E-2,2.7523768E-1,1.3180825E-1],"split_indices":[11,41,24,16,12,4,16,10,7,10,13,7,12,26,14,0,43,4,8,7,33,39,0,4,4,10,0,4,0,15,0,10,44,8,5,3,0,10,4,7,16,38,0,4,14,0,10,44,7,7,38,4,0,0,0,0,0,0,0,0,0,0,0,0,0,0,0,0,0,0,0,0,0,0,0,0,0,0,0,0,0,0,0,0,0,0,0,0,0],"split_type":[0,0,0,0,0,0,0,0,0,0,0,0,0,0,0,0,0,0,0,0,0,0,0,0,0,0,0,0,0,0,0,0,0,0,0,0,0,0,0,0,0,0,0,0,0,0,0,0,0,0,0,0,0,0,0,0,0,0,0,0,0,0,0,0,0,0,0,0,0,0,0,0,0,0,0,0,0,0,0,0,0,0,0,0,0,0,0,0,0],"sum_hessian":[1.7185784E3,5.106254E2,1.207953E3,2.3675534E2,2.7387006E2,3.267602E2,8.8119275E2,2.0983252E2,2.692282E1,1.1812052E2,1.5574953E2,2.5810834E2,6.865186E1,3.1431973E2,5.66873E2,1.16882454E2,9.2950066E1,1.8781668E1,8.141151E0,4.2948406E1,7.517212E1,1.5018193E2,5.5676064E0,2.2971759E2,2.8390755E1,6.2825394E1,5.826473E0,2.9758197E2,1.673776E1,5.4015967E2,2.6713312E1,6.9431335E1,2.3518724E1,2.1768198E0,1.6604847E1,6.5818663E0,1.5592853E0,1.2299039E1,3.0649366E1,6.3894993E1,1.1277126E1,1.4716281E2,3.0191178E0,9.271986E1,1.3699774E2,1.0524466E0,2.7338308E1,1.0666816E1,5.2158577E1,1.7270784E2,1.2487413E2,5.1586096E2,2.4298746E1,6.7318854E0,6.2699455E1,2.2103325E1,1.4153993E0,1.1036488E0,1.0731709E0,1.2380028E0,1.5366845E1,4.7615514E0,1.8203152E0,1.1756916E0,1.1123347E1,6.682549E0,2.3966818E1,1.0601276E0,6.283486E1,8.09826E0,3.1788657E0,2.963604E1,1.17526764E2,9.0287964E1,2.4318922E0,1.06532455E2,3.046528E1,2.6198658E1,1.1396501E0,6.0147657E0,4.6520495E0,4.993345E1,2.2251272E0,1.0315359E2,6.955426E1,6.4524864E1,6.0349266E1,9.887117E1,4.1698978E2],"tree_param":{"num_deleted":"0","num_feature":"48","num_nodes":"89","size_leaf_vector":"1"}},{"base_weights":[-5.7973745E-3,-6.029002E-1,2.280799E-1,-9.1640663E-1,-3.5794654E-1,3.2171685E-1,-2.922061E-1,-9.5286757E-1,-6.274419E-1,-7.691184E-1,-7.982637E-2,-1.4653162E-2,4.300187E-1,-3.3091927E-1,3.4421474E-1,-1.0453035E0,-8.289317E-1,-8.29295E-1,-1.6975391E-1,-5.473988E-1,-1.0783685E0,-1.2744081E-1,3.463563E-1,-3.9930686E-1,1.4833416E-1,3.95652E-1,4.4412848E-1,4.640323E-1,-4.0516877E-1,-3.3508968E-1,-8.4805006E-1,-9.740502E-1,-4.0939966E-1,-3.2625347E-1,-5.4606473E-1,4.349424E-2,-2.3706172E-1,-3.849418E-1,-3.396177E-1,-5.201375E-2,-1.0984962E0,-3.9332414E-1,4.521148E-2,-8.9710027E-1,2.8236112E-1,3.7549105E-1,-1.2948322E-1,1.7004512E-1,5.160154E-1,6.598494E-1,-2.856624E-1,2.1638088E-2,-5.790811E-1,-1.2275942E-1,-3.4045938E-1,-9.430528E-2,-3.1472406E-1,-1.8334757E-1,4.2397055E-1,-6.1568175E-2,-2.9251677E-1,7.8548305E-2,-2.0101523E-1,-2.0528252E-1,1.0676617E-2,-3.4543306E-1,-1.9600575E-1,-1.9483946E-1,1.2561979E-2,-2.3999343E-2,4.5074242E-1,-3.500207E-1,-1.4562194E-1,-1.04909845E-1,2.191233E-1,3.22136E-2,2.0194916E-1,-1.971693E-1,5.81904E-2,1.18481696E-1,-2.8707365E-2,1.4468318E-1,3.937473E-1,5.5074397E-2,3.1000504E-1,-7.965049E-2,2.678113E-1,-1.3588719E-1,-2.849408E-1],"categories":[],"categories_nodes":[],"categories_segments":[],"categories_sizes":[],"default_left":[0,0,0,0,0,0,0,0,0,0,0,0,0,0,0,0,0,0,0,0,0,0,0,0,0,0,0,0,0,0,0,0,0,0,0,0,0,0,0,0,0,0,0,0,0,0,0,0,0,0,0,0,0,0,0,0,0,0,0,0,0,0,0,0,0,0,0,0,0,0,0,0,0,0,0,0,0,0,0,0,0,0,0,0,0,0,0,0,0],"id":4,"left_children":[1,3,5,7,9,11,13,15,17,19,21,23,25,27,-1,29,31,33,35,37,39,41,-1,43,45,47,-1,49,51,-1,53,55,57,-1,59,61,-1,63,-1,-1,65,67,69,71,73,75,77,79,81,83,-1,85,87,-1,-1,-1,-1,-1,-1,-1,-1,-1,-1,-1,-1,-1,-1,-1,-1,-1,-1,-1,-1,-1,-1,-1,-1,-1,-1,-1,-1,-1,-1,-1,-1,-1,-1,-1,-1],"loss_changes":[2.2325224E2,3.4224823E1,5.6058613E1,1.4746704E0,2.9010677E1,3.548909E1,1.0173494E1,1.112503E0,2.1659012E0,6.435131E0,9.125555E0,1.4992375E1,2.6012817E1,1.0334814E1,0E0,3.9727783E-1,4.3883133E0,6.544905E-1,1.211775E0,5.42527E0,5.701103E-1,6.811394E0,0E0,2.4400328E1,1.06527605E1,1.9323647E1,0E0,4.8300366E0,1.1722326E1,0E0,3.2488213E0,2.5260124E0,8.929274E0,0E0,1.2838092E0,1.3548466E0,0E0,6.2936444E0,0E0,0E0,2.0598984E-1,6.5335445E0,1.6655708E1,4.0256653E0,8.9761715E0,7.3261414E0,1.3157152E1,1.4989505E1,1.1879967E1,2.2831373E0,0E0,1.1901402E1,4.8121986E0,0E0,0E0,0E0,0E0,0E0,0E0,0E0,0E0,0E0,0E0,0E0,0E0,0E0,0E0,0E0,0E0,0E0,0E0,0E0,0E0,0E0,0E0,0E0,0E0,0E0,0E0,0E0,0E0,0E0,0E0,0E0,0E0,0E0,0E0,0E0,0E0],"parents":[2147483647,0,0,1,1,2,2,3,3,4,4,5,5,6,6,7,7,8,8,9,9,10,10,11,11,12,12,13,13,15,15,16,16,17,17,18,18,19,19,20,20,21,21,23,23,24,24,25,25,27,27,28,28,30,30,31,31,32,32,34,34,35,35,37,37,40,40,41,41,42,42,43,43,44,44,45,45,46,46,47,47,48,48,49,49,51,51,52,52],"right_children":[2,4,6,8,10,12,14,16,18,20,22,24,26,28,-1,30,32,34,36,38,40,42,-1,44,46,48,-1,50,52,-1,54,56,58,-1,60,62,-1,64,-1,-1,66,68,70,72,74,76,78,80,82,84,-1,86,88,-1,-1,-1,-1,-1,-1,-1,-1,-1,-1,-1,-1,-1,-1,-1,-1,-1,-1,-1,-1,-1,-1,-1,-1,-1,-1,-1,-1,-1,-1,-1,-1,-1,-1,-1,-1],"split_conditions":[1E0,1E0,1E0,1E0,1E0,1E0,1E0,5.588433E-1,6.532626E-1,1.1739115E0,1E0,1E0,1E0,-1.4777873E0,3.4421474E-1,1E0,1E0,1E0,1E0,1.2947055E0,-2.4270166E-1,1E0,3.463563E-1,9.370529E-1,1E0,1E0,4.4412848E-1,6.1195207E-1,-1.0532683E0,-3.3508968E-1,4.2620517E-2,7.0657957E-1,1E0,-3.2625347E-1,1.21411666E-1,1.1170297E0,-2.3706172E-1,1E0,-3.396177E-1,-5.201375E-2,1E0,1E0,1E0,1E0,1E0,-3.0302274E-1,1E0,1E0,1E0,-4.9713904E-1,-2.856624E-1,-9.4879603E-1,1E0,-1.2275942E-1,-3.4045938E-1,-9.430528E-2,-3.1472406E-1,-1.8334757E-1,4.2397055E-1,-6.1568175E-2,-2.9251677E-1,7.8548305E-2,-2.0101523E-1,-2.0528252E-1,1.0676617E-2,-3.4543306E-1,-1.9600575E-1,-1.9483946E-1,1.2561979E-2,-2.3999343E-2,4.5074242E-1,-3.500207E-1,-1.4562194E-1,-1.04909845E-1,2.191233E-1,3.22136E-2,2.0194916E-1,-1.971693E-1,5.81904E-2,1.18481696E-1,-2.8707365E-2,1.4468318E-1,3.937473E-1,5.5074397E-2,3.1000504E-1,-7.965049E-2,2.678113E-1,-1.3588719E-1,-2.849408E-1],"split_indices":[11,41,3,16,12,33,12,10,7,10,13,42,35,10,0,14,43,0,1,8,7,24,0,7,0,16,0,7,4,0,8,10,44,0,7,8,0,14,0,0,33,15,26,20,43,10,17,0,17,8,0,8,47,0,0,0,0,0,0,0,0,0,0,0,0,0,0,0,0,0,0,0,0,0,0,0,0,0,0,0,0,0,0,0,0,0,0,0,0],"split_type":[0,0,0,0,0,0,0,0,0,0,0,0,0,0,0,0,0,0,0,0,0,0,0,0,0,0,0,0,0,0,0,0,0,0,0,0,0,0,0,0,0,0,0,0,0,0,0,0,0,0,0,0,0,0,0,0,0,0,0,0,0,0,0,0,0,0,0,0,0,0,0,0,0,0,0,0,0,0,0,0,0,0,0,0,0,0,0,0,0],"sum_hessian":[1.5966847E3,4.4893884E2,1.1477458E3,1.9571275E2,2.5322609E2,9.7301245E2,1.7473341E2,1.7174486E2,2.3967896E1,1.0146103E2,1.5176506E2,2.371922E2,7.3582025E2,1.7090753E2,3.825886E0,9.411568E1,7.762919E1,1.6069069E1,7.8988276E0,6.070682E1,4.0754208E1,1.4699167E2,4.7733874E0,7.016093E1,1.6703127E2,7.1384186E2,2.1978415E1,1.4150945E1,1.5675658E2,6.5615135E1,2.8500542E1,5.6695976E1,2.0933212E1,6.9202824E0,9.148786E0,6.5704684E0,1.3283591E0,4.8804203E1,1.19026165E1,1.0958574E0,3.965835E1,5.736769E1,8.962398E1,4.0366753E1,2.9794174E1,9.1700745E1,7.533053E1,2.4918571E2,4.6465613E2,1.2901233E1,1.2497114E0,4.5635597E1,1.1112098E2,1.2223768E1,1.6276773E1,6.3197126E0,5.0376263E1,1.9445366E1,1.487846E0,5.9220533E0,3.2267323E0,5.515786E0,1.0546823E0,2.814409E1,2.0660114E1,3.402464E1,5.633712E0,3.5803036E1,2.1564657E1,8.340302E1,6.2209544E0,2.328346E1,1.7083292E1,1.24502325E1,1.734394E1,4.896181E1,4.2738934E1,2.8233084E1,4.7097443E1,1.3470125E2,1.14484474E2,4.4731372E2,1.7342402E1,6.3260756E0,6.575157E0,3.4844574E1,1.0791024E1,8.4570816E1,2.6550163E1],"tree_param":{"num_deleted":"0","num_feature":"48","num_nodes":"89","size_leaf_vector":"1"}},{"base_weights":[-7.7159405E-3,-5.003188E-1,1.7130856E-1,-8.175885E-1,-2.7965704E-1,-5.546873E-2,3.3063242E-1,-8.67504E-1,-5.7262576E-1,-6.54198E-1,-5.301246E-2,2.5462132E-2,-4.902043E-1,4.4563666E-1,-8.687067E-3,-9.5014787E-1,-6.956063E-1,1.4324482E-1,-6.441455E-1,-8.8779706E-1,-3.3586857E-1,-8.917861E-2,3.5260728E-1,-1.8235707E-1,2.0634165E-1,-5.8312887E-1,3.0118558E-1,8.526585E-1,3.7079135E-1,-6.4601105E-1,2.1009634E-1,-1.0150484E0,-7.492568E-1,-8.694998E-1,-2.42384E-1,-4.7169358E-1,-3.09271E-1,7.370672E-2,-9.180558E-1,-5.857128E-1,4.8857507E-1,-2.7852583E-1,1.4700688E-1,-5.2067745E-1,2.9749865E-2,3.1874895E-1,-2.801068E-1,-6.587087E-1,3.5488665E-1,-1.815063E-1,8.9556944E-1,1.1514649E-1,5.723985E-1,-3.310965E-1,-1.1974947E0,-9.9185663E-1,3.5045084E-1,-3.164856E-1,-1.8733183E-1,-1.3443312E-1,-2.9551542E-1,-2.8226003E-1,-2.2684786E-2,2.8015947E-1,-1.896019E-1,-8.3814494E-2,-2.6102075E-1,-2.991441E-1,-1.3298817E-1,-2.8241566E-1,-3.7084658E-2,4.5419505E-1,-1.811893E-1,-1.21019505E-1,6.897595E-2,2.2403334E-1,-9.727498E-2,-7.478832E-2,-2.762565E-1,-1.0940244E-2,5.1416636E-1,7.229241E-3,1.628376E-1,8.4586345E-2,-3.294055E-1,-3.0582383E-1,-1.0280227E-1,-1.4754441E-1,8.426475E-2,2.772493E-1,-2.0046312E-2,8.9798704E-2,-3.9829236E-2,1.5886365E-1,3.8928458E-1,1.704253E-2,-2.0659119E-1,-4.2342964E-1,-7.5542286E-2,1.4894731E-1,-4.534568E-1,1.3625011E-1,-1.489238E-1],"categories":[],"categories_nodes":[],"categories_segments":[],"categories_sizes":[],"default_left":[0,0,0,0,0,0,0,0,0,0,0,0,0,0,0,0,0,0,0,0,0,0,0,0,0,0,0,0,0,0,0,0,0,0,0,0,0,0,0,0,0,0,0,0,0,0,0,0,0,0,0,0,0,0,0,0,0,0,0,0,0,0,0,0,0,0,0,0,0,0,0,0,0,0,0,0,0,0,0,0,0,0,0,0,0,0,0,0,0,0,0,0,0,0,0,0,0,0,0,0,0,0,0],"id":5,"left_children":[1,3,5,7,9,11,13,15,17,19,21,23,25,27,29,31,33,-1,35,37,39,41,-1,43,45,47,-1,49,51,53,55,57,59,61,63,65,-1,-1,67,69,71,73,75,77,79,81,83,85,-1,87,89,91,93,95,97,99,101,-1,-1,-1,-1,-1,-1,-1,-1,-1,-1,-1,-1,-1,-1,-1,-1,-1,-1,-1,-1,-1,-1,-1,-1,-1,-1,-1,-1,-1,-1,-1,-1,-1,-1,-1,-1,-1,-1,-1,-1,-1,-1,-1,-1,-1,-1],"loss_changes":[1.3207155E2,2.7718369E1,3.9706547E1,1.4991226E0,2.0080334E1,1.5990388E1,2.5186378E1,1.2378464E0,2.6036758E0,6.3382034E0,6.7115593E0,1.4465055E1,1.0488125E1,1.43669815E1,2.304964E1,3.80661E-1,3.5035324E0,0E0,1.4512043E0,1.9700851E0,8.3979E0,6.5430107E0,0E0,1.2870192E1,1.133558E1,9.826399E0,0E0,3.450653E0,2.1008411E1,6.939636E0,2.111303E1,3.2846832E-1,1.3474092E0,1.8366947E0,7.2147026E0,1.4373436E0,0E0,0E0,1.4261665E0,4.9255314E0,1.1785634E1,5.2382326E0,1.8712704E1,7.272993E0,1.2446813E1,1.1046713E1,1.830191E1,7.1332855E0,0E0,6.810007E-1,2.0242043E0,8.328883E0,6.4096603E0,3.9599407E0,2.673624E0,1.0907135E1,9.971411E0,0E0,0E0,0E0,0E0,0E0,0E0,0E0,0E0,0E0,0E0,0E0,0E0,0E0,0E0,0E0,0E0,0E0,0E0,0E0,0E0,0E0,0E0,0E0,0E0,0E0,0E0,0E0,0E0,0E0,0E0,0E0,0E0,0E0,0E0,0E0,0E0,0E0,0E0,0E0,0E0,0E0,0E0,0E0,0E0,0E0,0E0],"parents":[2147483647,0,0,1,1,2,2,3,3,4,4,5,5,6,6,7,7,8,8,9,9,10,10,11,11,12,12,13,13,14,14,15,15,16,16,18,18,19,19,20,20,21,21,23,23,24,24,25,25,27,27,28,28,29,29,30,30,31,31,32,32,33,33,34,34,35,35,38,38,39,39,40,40,41,41,42,42,43,43,44,44,45,45,46,46,47,47,49,49,50,50,51,51,52,52,53,53,54,54,55,55,56,56],"right_children":[2,4,6,8,10,12,14,16,18,20,22,24,26,28,30,32,34,-1,36,38,40,42,-1,44,46,48,-1,50,52,54,56,58,60,62,64,66,-1,-1,68,70,72,74,76,78,80,82,84,86,-1,88,90,92,94,96,98,100,102,-1,-1,-1,-1,-1,-1,-1,-1,-1,-1,-1,-1,-1,-1,-1,-1,-1,-1,-1,-1,-1,-1,-1,-1,-1,-1,-1,-1,-1,-1,-1,-1,-1,-1,-1,-1,-1,-1,-1,-1,-1,-1,-1,-1,-1,-1],"split_conditions":[1E0,1E0,1E0,1E0,1E0,1.0275197E-1,6.9920874E-1,8.9579993E-1,-7.9156154E-1,1.0321057E0,1E0,1E0,1E0,-1.240918E0,1E0,1E0,1E0,1.4324482E-1,1E0,-3.218382E-1,1E0,1.046671E0,3.5260728E-1,1E0,-2.4672562E-2,1E0,3.0118558E-1,1E0,1E0,8.827538E-1,1E0,1E0,4.2620517E-2,1E0,-1.9447806E-1,6.7499316E-1,-3.09271E-1,7.370672E-2,1E0,1E0,1E0,1E0,1E0,-7.256228E-1,1E0,-3.218382E-1,1E0,1E0,3.5488665E-1,-1.5866873E0,1E0,1E0,1E0,1E0,1E0,5E0,8E0,-3.164856E-1,-1.8733183E-1,-1.3443312E-1,-2.9551542E-1,-2.8226003E-1,-2.2684786E-2,2.8015947E-1,-1.896019E-1,-8.3814494E-2,-2.6102075E-1,-2.991441E-1,-1.3298817E-1,-2.8241566E-1,-3.7084658E-2,4.5419505E-1,-1.811893E-1,-1.21019505E-1,6.897595E-2,2.2403334E-1,-9.727498E-2,-7.478832E-2,-2.762565E-1,-1.0940244E-2,5.1416636E-1,7.229241E-3,1.628376E-1,8.4586345E-2,-3.294055E-1,-3.0582383E-1,-1.0280227E-1,-1.4754441E-1,8.426475E-2,2.772493E-1,-2.0046312E-2,8.9798704E-2,-3.9829236E-2,1.5886365E-1,3.8928458E-1,1.704253E-2,-2.0659119E-1,-4.2342964E-1,-7.5542286E-2,1.4894731E-1,-4.534568E-1,1.3625011E-1,-1.489238E-1],"split_indices":[11,41,22,24,12,8,8,10,7,7,39,27,12,4,38,14,43,0,14,10,27,8,0,17,7,13,0,33,20,4,20,16,8,1,8,10,0,0,16,14,2,17,2,8,15,10,0,29,0,8,15,0,18,0,15,9,9,0,0,0,0,0,0,0,0,0,0,0,0,0,0,0,0,0,0,0,0,0,0,0,0,0,0,0,0,0,0,0,0,0,0,0,0,0,0,0,0,0,0,0,0,0,0],"split_type":[0,0,0,0,0,0,0,0,0,0,0,0,0,0,0,0,0,0,0,0,0,0,0,0,0,0,0,0,0,0,0,0,0,0,0,0,0,0,0,0,0,0,0,0,0,0,0,0,0,0,0,0,0,0,0,0,0,0,0,0,0,0,0,0,0,0,0,0,0,0,0,0,0,0,0,0,0,0,0,0,0,0,0,0,0,0,0,0,0,0,0,0,0,0,0,0,0,0,0,0,0,0,0],"sum_hessian":[1.4956418E3,3.981899E2,1.097452E3,1.6222955E2,2.3596034E2,4.5313034E2,6.4432166E2,1.3265698E2,2.9572575E1,8.824494E1,1.4771541E2,3.8280783E2,7.032251E1,4.809887E2,1.6333295E2,8.65288E1,4.6128178E1,1.5237321E0,2.8048843E1,4.9864235E1,3.8380703E1,1.4439157E2,3.3238313E0,1.7813441E2,2.0467342E2,6.6779106E1,3.5434E0,7.309472E1,4.0789398E2,4.1241688E1,1.2209126E2,6.2337215E1,2.4191584E1,3.267346E1,1.345472E1,2.0934114E1,7.1147285E0,1.1114099E0,4.8752827E1,2.9676828E1,8.703874E0,8.004286E1,6.434872E1,6.808343E1,1.10050995E2,1.6653555E2,3.8137875E1,6.463986E1,2.1392481E0,2.783432E0,7.031129E1,1.8053741E2,2.2735657E2,2.7270021E1,1.3971666E1,1.21317625E1,1.099595E2,5.5016113E1,7.3210998E0,1.18973E1,1.2294283E1,2.980864E1,2.864818E0,3.0002575E0,1.0454462E1,1.5265935E1,5.66818E0,4.0847652E1,7.905173E0,1.6183393E1,1.3493436E1,4.2908897E0,4.412984E0,6.442653E1,1.5616331E1,2.8056465E1,3.6292255E1,4.153747E1,2.6545954E1,1.0682901E2,3.2219827E0,7.241115E1,9.41244E1,2.2992746E1,1.5145129E1,2.9147217E1,3.549264E1,1.6275481E0,1.1558838E0,6.832103E1,1.9902592E0,1.0346316E2,7.707425E1,2.163053E2,1.1051275E1,1.3483043E1,1.3786979E1,1.0992421E1,2.9792454E0,3.151193E0,8.980569E0,9.8375114E1,1.1584388E1],"tree_param":{"num_deleted":"0","num_feature":"48","num_nodes":"103","size_leaf_vector":"1"}},{"base_weights":[-8.391278E-3,-4.116369E-1,1.2864663E-1,-7.22148E-1,-2.1768905E-1,1.06075875E-1,3.7931523E-1,-7.775285E-1,-4.7525486E-1,-5.544443E-1,-3.5797454E-2,1.7285751E-1,-2.4964519E-1,-8.7242436E-1,-5.9815097E-1,-1.8113369E-1,-7.399501E-1,-7.239851E-1,-9.3591064E-2,-7.076861E-2,3.0168158E-1,-7.448366E-2,2.6154187E-1,-4.9171227E-1,-1.0635284E-1,-9.006339E-1,-3.7472612E-1,-1.5826876E-1,-8.235511E-1,-4.341208E-1,6.691962E-1,-3.0371147E-1,-2.3625118E-1,-4.222023E-1,-9.523374E-1,-4.3945512E-1,5.5624175E-1,-1.98693E-1,1.5520146E-1,-2.2339767E-2,-9.193639E-1,2.2247823E-1,3.8082102E-1,-1.8183692E-1,-8.5184264E-1,-1.5332113E-1,4.0374693E-1,-2.9546317E-1,-1.9244821E-1,3.6737245E-2,-2.2926699E-1,-1.3472807E-1,5.7995176E-1,-8.2216606E-2,-2.7001083E-1,-1.646487E-1,1.11737736E-1,4.9247158E-1,-1.968916E-1,-1.884812E-1,1.4792302E-1,-2.0912805E-1,4.0394936E-2,-3.8904637E-2,-2.9332787E-1,-2.631549E-1,3.4156647E-2,-1.3392922E-1,7.33567E-2,-2.8394222E-1,9.397547E-2,-3.9037132E-1,-7.9095265E-4,-3.4724277E-1,-7.721465E-2,1.0832107E-1,-1.5954653E-4,1.856758E-1,-1.1789233E-1,-8.43406E-2,-3.1861633E-1,-8.311778E-2,4.844021E-2],"categories":[],"categories_nodes":[],"categories_segments":[],"categories_sizes":[],"default_left":[0,0,0,0,0,0,0,0,0,0,0,0,0,0,0,0,0,0,0,0,0,0,0,0,0,0,0,0,0,0,0,0,0,0,0,0,0,0,0,0,0,0,0,0,0,0,0,0,0,0,0,0,0,0,0,0,0,0,0,0,0,0,0,0,0,0,0,0,0,0,0,0,0,0,0,0,0,0,0,0,0,0,0],"id":6,"left_children":[1,3,5,7,9,11,-1,13,15,17,19,21,23,25,27,29,31,33,35,37,-1,39,41,43,45,47,49,51,53,55,57,-1,59,61,63,65,-1,67,69,71,73,75,-1,77,79,81,-1,-1,-1,-1,-1,-1,-1,-1,-1,-1,-1,-1,-1,-1,-1,-1,-1,-1,-1,-1,-1,-1,-1,-1,-1,-1,-1,-1,-1,-1,-1,-1,-1,-1,-1,-1,-1],"loss_changes":[7.792674E1,2.138306E1,2.6847458E1,1.5048294E0,1.355335E1,2.458588E1,0E0,1.3573227E0,2.021523E0,5.9988613E0,5.3500395E0,1.9112505E1,5.6261463E0,6.4556503E-1,3.9721165E0,3.3966632E0,1.7160068E0,3.4993496E0,1.5655635E1,4.111739E0,0E0,1.0134315E1,2.4951195E1,6.607502E0,7.3073483E0,7.9922104E-1,1.152533E0,1.0147778E1,8.931484E-1,1.2901263E0,5.8517694E0,0E0,2.112666E0,4.101715E0,5.305481E-1,4.826823E0,0E0,1.0055052E1,9.279703E0,5.4930587E0,1.8101988E0,1.9107782E1,0E0,5.964996E0,3.0311298E0,4.007907E0,0E0,0E0,0E0,0E0,0E0,0E0,0E0,0E0,0E0,0E0,0E0,0E0,0E0,0E0,0E0,0E0,0E0,0E0,0E0,0E0,0E0,0E0,0E0,0E0,0E0,0E0,0E0,0E0,0E0,0E0,0E0,0E0,0E0,0E0,0E0,0E0,0E0],"parents":[2147483647,0,0,1,1,2,2,3,3,4,4,5,5,7,7,8,8,9,9,10,10,11,11,12,12,13,13,14,14,15,15,16,16,17,17,18,18,19,19,21,21,22,22,23,23,24,24,25,25,26,26,27,27,28,28,29,29,30,30,32,32,33,33,34,34,35,35,37,37,38,38,39,39,40,40,41,41,43,43,44,44,45,45],"right_children":[2,4,6,8,10,12,-1,14,16,18,20,22,24,26,28,30,32,34,36,38,-1,40,42,44,46,48,50,52,54,56,58,-1,60,62,64,66,-1,68,70,72,74,76,-1,78,80,82,-1,-1,-1,-1,-1,-1,-1,-1,-1,-1,-1,-1,-1,-1,-1,-1,-1,-1,-1,-1,-1,-1,-1,-1,-1,-1,-1,-1,-1,-1,-1,-1,-1,-1,-1,-1,-1],"split_conditions":[1E0,1E0,1E0,1E0,1E0,1E0,3.7931523E-1,1E0,6.3338715E-1,1E0,1E0,1E0,1E0,6E0,1.6735561E-1,1E0,1E0,8.359422E-1,1E0,1E0,3.0168158E-1,8.757802E-1,1E0,1E0,1E0,1E0,1E0,8.827538E-1,8.757802E-1,1.1597943E0,1E0,-3.0371147E-1,1.038136E0,6.436974E-1,-1.8801078E-1,1E0,5.5624175E-1,1E0,1E0,-1.4276701E0,1E0,-6.30332E-1,3.8082102E-1,-1.1722181E0,-1.7278838E0,1E0,4.0374693E-1,-2.9546317E-1,-1.9244821E-1,3.6737245E-2,-2.2926699E-1,-1.3472807E-1,5.7995176E-1,-8.2216606E-2,-2.7001083E-1,-1.646487E-1,1.11737736E-1,4.9247158E-1,-1.968916E-1,-1.884812E-1,1.4792302E-1,-2.0912805E-1,4.0394936E-2,-3.8904637E-2,-2.9332787E-1,-2.631549E-1,3.4156647E-2,-1.3392922E-1,7.33567E-2,-2.8394222E-1,9.397547E-2,-3.9037132E-1,-7.9095265E-4,-3.4724277E-1,-7.721465E-2,1.0832107E-1,-1.5954653E-4,1.856758E-1,-1.1789233E-1,-8.43406E-2,-3.1861633E-1,-8.311778E-2,4.844021E-2],"split_indices":[11,41,12,24,12,3,0,20,8,33,13,24,33,9,8,44,16,10,35,16,0,4,26,0,35,14,2,4,4,10,0,0,8,10,7,24,0,18,38,10,35,4,0,4,7,32,0,0,0,0,0,0,0,0,0,0,0,0,0,0,0,0,0,0,0,0,0,0,0,0,0,0,0,0,0,0,0,0,0,0,0,0,0],"split_type":[0,0,0,0,0,0,0,0,0,0,0,0,0,0,0,0,0,0,0,0,0,0,0,0,0,0,0,0,0,0,0,0,0,0,0,0,0,0,0,0,0,0,0,0,0,0,0,0,0,0,0,0,0,0,0,0,0,0,0,0,0,0,0,0,0,0,0,0,0,0,0,0,0,0,0,0,0,0,0,0,0,0,0],"sum_hessian":[1.4082268E3,3.566754E2,1.0515514E3,1.3608289E2,2.2059254E2,1.0321329E3,1.9418407E1,1.0939521E2,2.6687668E1,7.66444E1,1.4394814E2,8.6942474E2,1.627082E2,6.901873E1,4.0376488E1,1.3438989E1,1.3248679E1,5.5613934E1,2.1030472E1,1.4017307E2,3.7750814E0,2.2950218E2,6.3992255E2,5.9597404E1,1.031108E2,6.455041E1,4.4683166E0,1.4256406E1,2.612008E1,1.0734705E1,2.7042832E0,7.9429345E0,5.305745E0,2.5182493E1,3.0431438E1,1.8516771E1,2.5137007E0,8.9580925E1,5.0592136E1,2.1712802E2,1.2374157E1,6.1722046E2,2.2702076E1,3.2842712E1,2.6754694E1,1.0074673E2,2.3640711E0,4.660055E1,1.7949858E1,2.26399E0,2.2043266E0,1.3205402E1,1.051003E0,3.7514455E0,2.2368635E1,9.677916E0,1.0567892E0,1.4223828E0,1.2819005E0,3.540995E0,1.7647502E0,1.6691067E1,8.491426E0,1.0951083E0,2.933633E1,1.0011372E1,8.505399E0,5.7457485E1,3.212344E1,5.721618E0,4.4870518E1,2.3075564E0,2.1482047E2,8.55019E0,3.8239665E0,3.8027527E2,2.369452E2,6.449834E0,2.6392878E1,7.8311534E0,1.8923542E1,7.240527E1,2.8341455E1],"tree_param":{"num_deleted":"0","num_feature":"48","num_nodes":"83","size_leaf_vector":"1"}},{"base_weights":[-8.354213E-3,-2.5822446E-1,1.3474289E-1,-1.430992E-1,-5.6740767E-1,8.582734E-2,4.5647705E-1,-3.399089E-2,-4.523746E-1,-4.3371263E-1,-8.3553E-1,-2.3233396E-1,1.6727626E-1,-1.6432784E-1,1.8738395E-1,-6.650684E-1,4.9204938E-2,-5.7022154E-1,-1.0325789E-2,-9.935438E-1,-5.311552E-1,-1.2674127E-2,-4.6871656E-1,1.3647051E-1,3.6620662E-1,-8.5044384E-2,-9.858872E-1,1.2968123E-1,3.868476E-1,-8.288988E-1,-3.050586E-1,1.0104222E0,-4.295692E-1,-2.6242933E-1,-8.8870656E-1,1.025702E0,-2.240663E-1,-1.0575693E0,-2.244177E-1,9.159976E-2,-6.2357366E-1,-1.521002E-1,7.441895E-1,-6.101315E-1,-1.547684E-1,3.129029E-1,-8.636627E-3,-1.6646795E-1,5.955053E-3,-3.354383E-1,-4.8866555E-2,-1.1801544E-3,1.4127225E-1,-3.1190603E-3,-2.8980017E-1,-2.0580225E-1,8.6744666E-2,-9.911112E-2,4.782084E-1,-2.0278552E-1,1.467728E-1,6.109741E-2,-1.5294853E-1,-2.7576894E-2,-3.0900028E-1,6.50411E-2,4.3453744E-1,-2.8815505E-1,3.303778E-2,-4.924427E-2,-3.2836354E-1,-1.810255E-1,8.5929014E-2,-2.3786433E-1,-7.070675E-3,-8.425367E-2,1.6745682E-1,-5.984291E-2,3.0663434E-1,-2.805088E-1,-9.2996135E-2,-2.0488325E-1,1.22755155E-1,4.2091813E-2,1.8041767E-1,-7.674012E-2,5.1412504E-2],"categories":[],"categories_nodes":[],"categories_segments":[],"categories_sizes":[],"default_left":[0,0,0,0,0,0,0,0,0,0,0,0,0,0,0,0,0,0,0,0,0,0,0,0,0,0,0,0,0,0,0,0,0,0,0,0,0,0,0,0,0,0,0,0,0,0,0,0,0,0,0,0,0,0,0,0,0,0,0,0,0,0,0,0,0,0,0,0,0,0,0,0,0,0,0,0,0,0,0,0,0,0,0,0,0,0,0],"id":7,"left_children":[1,3,5,7,9,11,-1,13,15,17,19,21,23,25,27,29,31,33,35,37,39,41,43,45,-1,47,49,51,-1,53,55,57,59,61,63,65,67,69,71,-1,73,75,77,79,81,83,85,-1,-1,-1,-1,-1,-1,-1,-1,-1,-1,-1,-1,-1,-1,-1,-1,-1,-1,-1,-1,-1,-1,-1,-1,-1,-1,-1,-1,-1,-1,-1,-1,-1,-1,-1,-1,-1,-1,-1,-1],"loss_changes":[4.8122597E1,1.736314E1,5.7926693E1,1.2080254E1,4.3920937E0,2.148832E1,0E0,7.7072406E0,9.996532E0,5.2294197E0,1.542841E0,8.77568E0,2.123804E1,1.0858414E1,6.1324606E0,3.6194496E0,1.3661469E1,6.47958E0,5.345881E0,1.1016216E0,1.493854E0,9.472476E0,3.5209942E0,1.6438412E1,0E0,7.615636E0,1.4166927E0,4.3442817E0,0E0,4.9879875E0,5.204504E0,8.237864E0,4.832863E0,4.283007E0,3.6470451E0,1.098474E0,5.0214343E0,6.40646E-1,8.231544E-1,0E0,1.5571022E0,7.081537E0,3.8668423E0,5.151991E0,8.211485E0,1.4342712E1,1.5760084E1,0E0,0E0,0E0,0E0,0E0,0E0,0E0,0E0,0E0,0E0,0E0,0E0,0E0,0E0,0E0,0E0,0E0,0E0,0E0,0E0,0E0,0E0,0E0,0E0,0E0,0E0,0E0,0E0,0E0,0E0,0E0,0E0,0E0,0E0,0E0,0E0,0E0,0E0,0E0,0E0],"parents":[2147483647,0,0,1,1,2,2,3,3,4,4,5,5,7,7,8,8,9,9,10,10,11,11,12,12,13,13,14,14,15,15,16,16,17,17,18,18,19,19,20,20,21,21,22,22,23,23,25,25,26,26,27,27,29,29,30,30,31,31,32,32,33,33,34,34,35,35,36,36,37,37,38,38,40,40,41,41,42,42,43,43,44,44,45,45,46,46],"right_children":[2,4,6,8,10,12,-1,14,16,18,20,22,24,26,28,30,32,34,36,38,40,42,44,46,-1,48,50,52,-1,54,56,58,60,62,64,66,68,70,72,-1,74,76,78,80,82,84,86,-1,-1,-1,-1,-1,-1,-1,-1,-1,-1,-1,-1,-1,-1,-1,-1,-1,-1,-1,-1,-1,-1,-1,-1,-1,-1,-1,-1,-1,-1,-1,-1,-1,-1,-1,-1,-1,-1,-1,-1],"split_conditions":[1E0,1E0,1E0,8.0967313E-1,7.3683333E-1,1E0,4.5647705E-1,1E0,1E0,5.2506006E-1,1E0,-1.01157434E-1,1E0,7.30527E-1,1E0,1E0,1.6735561E-1,1E0,6.0986036E-1,1.7021911E0,1E0,1E0,1E0,-8.745664E-1,3.6620662E-1,1E0,9.456494E-1,1E0,3.868476E-1,-1.0373893E0,1E0,1E0,1E0,-9.2553073E-1,-2.4853094E0,1E0,1E0,-1.7790258E0,5.7281595E-1,9.159976E-2,1E0,8.283806E-1,-3.26942E-2,1E0,1E0,5.095759E-1,1E0,-1.6646795E-1,5.955053E-3,-3.354383E-1,-4.8866555E-2,-1.1801544E-3,1.4127225E-1,-3.1190603E-3,-2.8980017E-1,-2.0580225E-1,8.6744666E-2,-9.911112E-2,4.782084E-1,-2.0278552E-1,1.467728E-1,6.109741E-2,-1.5294853E-1,-2.7576894E-2,-3.0900028E-1,6.50411E-2,4.3453744E-1,-2.8815505E-1,3.303778E-2,-4.924427E-2,-3.2836354E-1,-1.810255E-1,8.5929014E-2,-2.3786433E-1,-7.070675E-3,-8.425367E-2,1.6745682E-1,-5.984291E-2,3.0663434E-1,-2.805088E-1,-9.2996135E-2,-2.0488325E-1,1.22755155E-1,4.2091813E-2,1.8041767E-1,-7.674012E-2,5.1412504E-2],"split_indices":[33,3,35,10,4,24,0,38,15,7,14,4,26,7,36,16,8,0,7,10,2,15,15,4,0,11,7,26,0,4,2,20,18,8,8,26,24,7,7,0,36,7,10,32,36,7,38,0,0,0,0,0,0,0,0,0,0,0,0,0,0,0,0,0,0,0,0,0,0,0,0,0,0,0,0,0,0,0,0,0,0,0,0,0,0,0,0],"split_type":[0,0,0,0,0,0,0,0,0,0,0,0,0,0,0,0,0,0,0,0,0,0,0,0,0,0,0,0,0,0,0,0,0,0,0,0,0,0,0,0,0,0,0,0,0,0,0,0,0,0,0,0,0,0,0,0,0,0,0,0,0,0,0,0,0,0,0,0,0,0,0,0,0,0,0,0,0,0,0,0,0,0,0,0,0,0,0],"sum_hessian":[1.3438987E3,4.89081E2,8.548176E2,3.5744727E2,1.3163371E2,8.267202E2,2.8097395E1,2.6505075E2,9.239652E1,8.958243E1,4.2051292E1,1.681253E2,6.585949E2,1.6699074E2,9.806001E1,6.465413E1,2.7742393E1,6.7478966E1,2.2103458E1,2.6190487E1,1.5860806E1,8.76913E1,8.0434006E1,6.409798E2,1.7615118E1,1.5330023E2,1.3690513E1,9.42434E1,3.816606E0,4.353853E1,2.11156E1,8.8547E0,1.8887693E1,3.5243107E1,3.223586E1,3.1305346E0,1.8972923E1,2.3831612E1,2.3588755E0,1.3488088E0,1.4511998E1,7.472485E1,1.2966443E1,5.4804447E1,2.5629555E1,2.8874506E2,3.5223477E2,2.719538E1,1.2610485E2,1.148628E1,2.2042327E0,6.8434685E1,2.580872E1,6.4008856E0,3.713764E1,1.2772566E1,8.343036E0,2.8169265E0,6.037774E0,1.5102284E1,3.785409E0,1.2281736E1,2.296137E1,5.104014E0,2.7131845E1,1.5938011E0,1.5367334E0,5.337242E0,1.3635682E1,1.1632848E0,2.2668327E1,1.2501631E0,1.1087124E0,1.1067539E1,3.4444594E0,6.377056E1,1.0954291E1,3.0142224E0,9.952221E0,2.5301277E1,2.9503172E1,1.3125617E1,1.2503937E1,1.8159004E2,1.0715501E2,1.4825424E2,2.0398053E2],"tree_param":{"num_deleted":"0","num_feature":"48","num_nodes":"87","size_leaf_vector":"1"}},{"base_weights":[-6.7800754E-3,-1.6139372E-1,1.7160767E-1,-3.9600098E-1,-5.1738005E-2,1.2128623E-1,3.937429E-1,-3.220244E-1,-8.816375E-1,-6.6518344E-2,4.1978619E-1,6.861903E-2,3.8779458E-1,-5.032584E-1,-1.3355089E-2,-9.493851E-1,-1.8394282E-1,-8.268023E-2,3.1362668E-1,2.1405384E-2,3.962863E-1,-6.422017E-1,-2.4045318E-1,8.5941184E-1,-8.2846634E-2,-3.1207407E-1,-6.22061E-1,-2.0930044E-1,1.7993632E-1,1.2440966E-1,-1.5557364E-1,-2.317401E-1,1.5540014E-1,-2.5627065E-1,-1.266699E-1,-1.1945178E-1,3.6867243E-1,-8.1094064E-2,3.936171E-1,-5.2687295E-2,2.0044501E-1,-3.4617648E-2,-2.488741E-1,1.2656587E-2,4.3392703E-1,-8.9748725E-2,2.5711956E-2,-1.8986332E-1,-2.143851E-2,3.4851987E-2,3.963472E-1],"categories":[],"categories_nodes":[],"categories_segments":[],"categories_sizes":[],"default_left":[0,0,0,0,0,0,0,0,0,0,0,0,0,0,0,0,0,0,0,0,0,0,0,0,0,0,0,0,0,0,0,0,0,0,0,0,0,0,0,0,0,0,0,0,0,0,0,0,0,0,0],"id":8,"left_children":[1,3,5,7,9,11,-1,13,15,17,-1,19,-1,21,23,25,27,29,-1,31,-1,33,35,37,39,-1,41,-1,-1,43,45,47,49,-1,-1,-1,-1,-1,-1,-1,-1,-1,-1,-1,-1,-1,-1,-1,-1,-1,-1],"loss_changes":[3.558462E1,1.7759312E1,3.4232494E1,7.6193123E0,1.0218756E1,3.5374977E1,0E0,1.0761019E1,1.1727295E0,8.502773E0,0E0,3.256086E1,0E0,4.272978E0,4.452182E0,1.1850166E-1,1.9336195E0,7.00169E0,0E0,1.8087E1,0E0,3.3107262E0,1.05777E1,3.1237953E0,4.8426642E0,0E0,7.5390077E-1,0E0,0E0,1.3089041E1,1.1893871E1,1.1822741E1,1.5786314E1,0E0,0E0,0E0,0E0,0E0,0E0,0E0,0E0,0E0,0E0,0E0,0E0,0E0,0E0,0E0,0E0,0E0,0E0],"parents":[2147483647,0,0,1,1,2,2,3,3,4,4,5,5,7,7,8,8,9,9,11,11,13,13,14,14,15,15,16,16,17,17,19,19,21,21,22,22,23,23,24,24,26,26,29,29,30,30,31,31,32,32],"right_children":[2,4,6,8,10,12,-1,14,16,18,-1,20,-1,22,24,26,28,30,-1,32,-1,34,36,38,40,-1,42,-1,-1,44,46,48,50,-1,-1,-1,-1,-1,-1,-1,-1,-1,-1,-1,-1,-1,-1,-1,-1,-1,-1],"split_conditions":[1E0,1E0,1E0,1.5677776E0,1E0,1E0,3.937429E-1,9.4877577E-1,1.2138071E0,1E0,4.1978619E-1,1E0,3.8779458E-1,1E0,5.9091115E-1,1E0,1E0,-1.2002122E0,3.1362668E-1,1E0,3.962863E-1,1E0,1E0,1E0,1E0,-3.1207407E-1,1.6084834E0,-2.0930044E-1,1.7993632E-1,-1.2341312E0,1E0,1E0,1E0,-2.5627065E-1,-1.266699E-1,-1.1945178E-1,3.6867243E-1,-8.1094064E-2,3.936171E-1,-5.2687295E-2,2.0044501E-1,-3.4617648E-2,-2.488741E-1,1.2656587E-2,4.3392703E-1,-8.9748725E-2,2.5711956E-2,-1.8986332E-1,-2.143851E-2,3.4851987E-2,3.963472E-1],"split_indices":[16,11,14,4,13,15,0,8,7,12,0,17,0,17,7,24,12,4,0,27,0,18,15,35,45,0,4,0,0,4,14,22,29,0,0,0,0,0,0,0,0,0,0,0,0,0,0,0,0,0,0],"split_type":[0,0,0,0,0,0,0,0,0,0,0,0,0,0,0,0,0,0,0,0,0,0,0,0,0,0,0,0,0,0,0,0,0,0,0,0,0,0,0,0,0,0,0,0,0,0,0,0,0,0,0],"sum_hessian":[1.2881733E3,6.901212E2,5.9805206E2,2.1898781E2,4.7113342E2,5.738471E2,2.4204948E1,1.9148256E2,2.7505259E1,4.6732733E2,3.8061013E0,5.501688E2,2.3678299E1,1.2024863E2,7.123393E1,2.4742012E1,2.7632463E0,4.615445E2,5.782836E0,5.311609E2,1.900793E1,7.7716705E1,4.253192E1,4.4151745E0,6.6818756E1,1.7661367E1,7.080644E0,1.7354757E0,1.0277708E0,1.1997871E2,3.4156577E2,1.8358987E2,3.47571E2,3.8103897E1,3.9612804E1,3.9067482E1,3.464438E0,1.3782097E0,3.036965E0,6.0153564E1,6.6651897E0,2.5095372E0,4.571107E0,1.1392518E2,6.053526E0,2.1398236E2,1.2758341E2,5.157119E1,1.3201868E2,3.373201E2,1.02509165E1],"tree_param":{"num_deleted":"0","num_feature":"48","num_nodes":"51","size_leaf_vector":"1"}},{"base_weights":[-2.170837E-3,-1.7442648E-1,9.2941046E-2,-9.0611964E-2,-4.2402887E-1,5.5262074E-2,4.0210786E-1,-1.8670594E-2,-3.176107E-1,-2.9953164E-1,-7.0938176E-1,9.183748E-2,-3.8562518E-1,-8.7110156E-1,1.0049732E-2,-5.017179E-1,1.0472944E-1,-4.7364208E-1,-4.930118E-2,-8.941694E-1,-3.8726547E-1,-2.5657976E-2,2.4839336E-1,-1.8055339E-1,-8.990044E-1,-3.588224E-1,1.8623011E-2,-3.2379508E-1,6.046562E-2,-7.1261376E-2,-6.1981744E-1,7.9225284E-1,-2.8271484E-1,1.5632898E-1,-6.1218613E-1,5.993999E-1,-1.9635445E-1,-9.661443E-1,-4.5298412E-2,8.585592E-2,-4.7813794E-1,1.5496697E-1,-1.7981514E-1,1.7634721E-1,4.1920176E-1,-5.594416E-1,2.2199212E-1,-1.3254888E0,-4.712556E-1,9.6127065E-3,-2.5451615E-1,1.17517196E-1,2.5188706E-3,-1.9704103E-1,1.3279653E-1,-2.421303E-1,-8.383856E-2,-6.663004E-2,3.6485898E-1,3.678284E-2,-2.49631E-1,1.02564126E-1,-1.7942412E-1,-1.2536319E-1,-2.55164E-1,2.831448E-1,-9.300188E-2,-3.303308E-1,-1.1612621E-2,-2.4115967E-2,-3.0402687E-1,-2.5902033E-1,-4.477869E-2,1.7244123E-1,-8.123018E-3,-2.066616E-1,-3.6397975E-2,-2.4286477E-2,1.0809418E-1,-2.9238626E-1,-8.123331E-2,-1.8960255E-1,1.3316531E-1,-4.4502664E-1,-8.7693006E-2,-2.3007427E-1,-5.3307693E-3],"categories":[],"categories_nodes":[],"categories_segments":[],"categories_sizes":[],"default_left":[0,0,0,0,0,0,0,0,0,0,0,0,0,0,0,0,0,0,0,0,0,0,0,0,0,0,0,0,0,0,0,0,0,0,0,0,0,0,0,0,0,0,0,0,0,0,0,0,0,0,0,0,0,0,0,0,0,0,0,0,0,0,0,0,0,0,0,0,0,0,0,0,0,0,0,0,0,0,0,0,0,0,0,0,0,0,0],"id":9,"left_children":[1,3,5,7,9,11,-1,13,15,17,19,21,23,25,27,29,31,33,35,37,39,41,43,45,47,-1,-1,49,51,53,55,57,59,61,63,65,67,69,-1,-1,71,73,75,77,-1,79,81,83,85,-1,-1,-1,-1,-1,-1,-1,-1,-1,-1,-1,-1,-1,-1,-1,-1,-1,-1,-1,-1,-1,-1,-1,-1,-1,-1,-1,-1,-1,-1,-1,-1,-1,-1,-1,-1,-1,-1],"loss_changes":[2.040567E1,9.230569E0,3.764202E1,5.4314504E0,3.7346096E0,1.2612774E1,0E0,6.224548E0,6.278078E0,3.4222689E0,1.6191063E0,1.3269259E1,6.1481647E0,2.5872746E0,4.170202E0,2.799199E0,6.91903E0,4.1559544E0,3.3196785E0,9.355812E-1,9.8141694E-1,1.1522129E1,2.5349962E1,6.8476343E0,2.4506893E0,0E0,0E0,6.0962667E0,3.7067113E0,4.254291E0,2.5638332E0,4.2787576E0,3.8457122E0,1.4899335E0,1.4201956E0,2.312713E0,3.9676032E0,6.827011E-1,0E0,0E0,1.4592752E0,1.4584339E1,6.5614066E0,1.3856629E1,0E0,2.4916925E0,4.4664803E0,8.537693E-1,1.3228655E0,0E0,0E0,0E0,0E0,0E0,0E0,0E0,0E0,0E0,0E0,0E0,0E0,0E0,0E0,0E0,0E0,0E0,0E0,0E0,0E0,0E0,0E0,0E0,0E0,0E0,0E0,0E0,0E0,0E0,0E0,0E0,0E0,0E0,0E0,0E0,0E0,0E0,0E0],"parents":[2147483647,0,0,1,1,2,2,3,3,4,4,5,5,7,7,8,8,9,9,10,10,11,11,12,12,13,13,14,14,15,15,16,16,17,17,18,18,19,19,20,20,21,21,22,22,23,23,24,24,27,27,28,28,29,29,30,30,31,31,32,32,33,33,34,34,35,35,36,36,37,37,40,40,41,41,42,42,43,43,45,45,46,46,47,47,48,48],"right_children":[2,4,6,8,10,12,-1,14,16,18,20,22,24,26,28,30,32,34,36,38,40,42,44,46,48,-1,-1,50,52,54,56,58,60,62,64,66,68,70,-1,-1,72,74,76,78,-1,80,82,84,86,-1,-1,-1,-1,-1,-1,-1,-1,-1,-1,-1,-1,-1,-1,-1,-1,-1,-1,-1,-1,-1,-1,-1,-1,-1,-1,-1,-1,-1,-1,-1,-1,-1,-1,-1,-1,-1,-1],"split_conditions":[1E0,1E0,1E0,8.0967313E-1,7.3683333E-1,1.1200147E0,4.0210786E-1,-1.7920581E0,1E0,-3.2321114E-2,1E0,1E0,1E0,1E0,-6.980353E-1,-9.1823965E-1,1.6735561E-1,-2.4680798E0,-2.0580898E-1,1.7021911E0,1E0,-1.0564536E0,1E0,1E0,1.364249E0,-3.588224E-1,1.8623011E-2,-1.0902395E0,-2.363637E0,9.539985E-1,1E0,1E0,1E0,-5.257541E-1,1E0,1E0,8.166076E-2,-1.7790258E0,-4.5298412E-2,8.585592E-2,9.788153E-1,-1.240918E0,-9.2348504E-1,1E0,4.1920176E-1,8.1091315E-1,1E0,1E0,1E0,9.6127065E-3,-2.5451615E-1,1.17517196E-1,2.5188706E-3,-1.9704103E-1,1.3279653E-1,-2.421303E-1,-8.383856E-2,-6.663004E-2,3.6485898E-1,3.678284E-2,-2.49631E-1,1.02564126E-1,-1.7942412E-1,-1.2536319E-1,-2.55164E-1,2.831448E-1,-9.300188E-2,-3.303308E-1,-1.1612621E-2,-2.4115967E-2,-3.0402687E-1,-2.5902033E-1,-4.477869E-2,1.7244123E-1,-8.123018E-3,-2.066616E-1,-3.6397975E-2,-2.4286477E-2,1.0809418E-1,-2.9238626E-1,-8.123331E-2,-1.8960255E-1,1.3316531E-1,-4.4502664E-1,-8.7693006E-2,-2.3007427E-1,-5.3307693E-3],"split_indices":[33,3,35,10,4,4,0,7,15,7,14,41,1,6,10,4,8,8,8,10,2,10,39,16,4,0,0,4,8,10,16,20,2,10,0,0,8,7,0,0,8,4,10,20,0,7,29,27,30,0,0,0,0,0,0,0,0,0,0,0,0,0,0,0,0,0,0,0,0,0,0,0,0,0,0,0,0,0,0,0,0,0,0,0,0,0,0],"split_type":[0,0,0,0,0,0,0,0,0,0,0,0,0,0,0,0,0,0,0,0,0,0,0,0,0,0,0,0,0,0,0,0,0,0,0,0,0,0,0,0,0,0,0,0,0,0,0,0,0,0,0,0,0,0,0,0,0,0,0,0,0,0,0,0,0,0,0,0,0,0,0,0,0,0,0,0,0,0,0,0,0,0,0,0,0,0,0],"sum_hessian":[1.2435073E3,4.4206192E2,8.014454E2,3.3195654E2,1.1010538E2,7.7896075E2,2.2484642E1,2.5289142E2,7.9065125E1,7.808652E1,3.2018852E1,7.200205E2,5.894022E1,7.286765E0,2.4560466E2,5.4931393E1,2.4133732E1,4.552051E1,3.256601E1,1.921812E1,1.2800732E1,4.1180002E2,3.0822052E2,4.308243E1,1.5857789E1,5.1956825E0,2.0910826E0,3.1512451E1,2.1409221E2,1.2171466E1,4.2759926E1,8.321801E0,1.5811931E1,8.183066E0,3.7337444E1,5.449661E0,2.7116348E1,1.7247696E1,1.9704255E0,1.2663738E0,1.1534358E1,1.8961919E2,2.2218082E2,2.91119E2,1.710151E1,2.1992579E1,2.1089853E1,6.8896995E0,8.968089E0,1.9335712E1,1.2176739E1,2.8195179E1,1.8589702E2,5.559309E0,6.6121573E0,2.669786E1,1.6062067E1,2.5932198E0,5.728582E0,9.545982E0,6.265948E0,7.0065804E0,1.176486E0,2.2086174E1,1.525127E1,3.925234E0,1.5244267E0,3.1356728E0,2.3980677E1,1.0107987E0,1.6236897E1,4.5633206E0,6.9710374E0,5.6699295E1,1.3291989E2,2.1786192E1,2.0039464E2,1.2160209E2,1.695169E2,8.045127E0,1.3947452E1,3.9683864E0,1.7121468E1,5.5981703E0,1.2915292E0,5.01035E0,3.957739E0],"tree_param":{"num_deleted":"0","num_feature":"48","num_nodes":"87","size_leaf_vector":"1"}},{"base_weights":[-3.4750549E-3,-1.5604188E-1,7.739777E-2,-1.23375386E-1,-8.353314E-1,4.6918813E-2,3.5465702E-1,-7.548284E-1,-1.0570655E-1,-2.793637E-1,-1.961853E-1,1.360227E-1,-1.202232E-1,-2.6135865E-1,-3.0898002E-1,-2.6537004E-1,-3.3416208E-2,-2.0573707E-1,1.6714498E-1,2.2026606E-2,2.9240018E-1,-4.1759124E-1,-2.8793734E-2,-4.653587E-1,2.8031452E-2,-4.9046907E-1,-1.04638655E-2,-4.9828865E-2,2.7540654E-1,2.7340338E-1,-1.2888259E-1,2.4429087E-1,3.8528624E-1,-5.589115E-1,1.1185237E-1,2.4494974E-1,-1.3136232E-1,-1.8287453E-1,-3.2494757E-2,-2.6959485E-1,-8.699145E-2,7.7632016E-1,-3.3366162E-2,8.245975E-3,-8.603355E-2,1.8934073E-1,3.4550764E-2,-1.2808074E-2,-1.8163481E-1,1.16972715E-1,-3.9761465E-2,-5.040619E-2,-2.265275E-1,9.994933E-2,-2.5907147E-1,-7.721654E-2,1.367453E-1,-1.09581366E-1,3.3080686E-2],"categories":[],"categories_nodes":[],"categories_segments":[],"categories_sizes":[],"default_left":[0,0,0,0,0,0,0,0,0,0,0,0,0,0,0,0,0,0,0,0,0,0,0,0,0,0,0,0,0,0,0,0,0,0,0,0,0,0,0,0,0,0,0,0,0,0,0,0,0,0,0,0,0,0,0,0,0,0,0],"id":10,"left_children":[1,3,5,7,9,11,-1,13,15,-1,17,19,21,23,-1,25,27,-1,-1,29,31,33,35,37,-1,39,41,43,-1,45,47,49,-1,51,53,55,57,-1,-1,-1,-1,-1,-1,-1,-1,-1,-1,-1,-1,-1,-1,-1,-1,-1,-1,-1,-1,-1,-1],"loss_changes":[1.4898899E1,9.179525E0,2.651955E1,4.3864E0,9.8292255E-1,1.1470017E1,0E0,1.1879172E0,4.499131E0,0E0,1.7645043E0,8.944343E0,7.2732115E0,4.1854265E-1,0E0,6.9710274E0,4.261793E0,0E0,0E0,1.1092865E1,9.784529E0,4.7716284E0,5.816628E0,1.1200595E-1,0E0,5.021573E0,1.5481049E1,4.887548E0,0E0,6.1350155E0,7.4835386E0,1.1194492E1,0E0,3.6954832E0,3.3301048E0,6.102381E0,8.547381E0,0E0,0E0,0E0,0E0,0E0,0E0,0E0,0E0,0E0,0E0,0E0,0E0,0E0,0E0,0E0,0E0,0E0,0E0,0E0,0E0,0E0,0E0],"parents":[2147483647,0,0,1,1,2,2,3,3,4,4,5,5,7,7,8,8,10,10,11,11,12,12,13,13,15,15,16,16,19,19,20,20,21,21,22,22,23,23,25,25,26,26,27,27,29,29,30,30,31,31,33,33,34,34,35,35,36,36],"right_children":[2,4,6,8,10,12,-1,14,16,-1,18,20,22,24,-1,26,28,-1,-1,30,32,34,36,38,-1,40,42,44,-1,46,48,50,-1,52,54,56,58,-1,-1,-1,-1,-1,-1,-1,-1,-1,-1,-1,-1,-1,-1,-1,-1,-1,-1,-1,-1,-1,-1],"split_conditions":[1E0,1.5677776E0,1E0,-1.7920581E0,1.2138071E0,1E0,3.5465702E-1,-1.2689596E0,1E0,-2.793637E-1,1E0,1E0,1E0,1E0,-3.0898002E-1,8.081408E-1,1E0,-2.0573707E-1,1.6714498E-1,-1.0605069E0,1E0,1E0,2.4793564E-1,-1.8008024E0,2.8031452E-2,-2.1914963E-2,4.2620517E-2,2.9442853E-1,2.7540654E-1,-1.4524322E0,1E0,4.8833176E-2,3.8528624E-1,-6.889871E-1,5.151223E-1,-6.635881E-1,-4.2346418E-2,-1.8287453E-1,-3.2494757E-2,-2.6959485E-1,-8.699145E-2,7.7632016E-1,-3.3366162E-2,8.245975E-3,-8.603355E-2,1.8934073E-1,3.4550764E-2,-1.2808074E-2,-1.8163481E-1,1.16972715E-1,-3.9761465E-2,-5.040619E-2,-2.265275E-1,9.994933E-2,-2.5907147E-1,-7.721654E-2,1.367453E-1,-1.09581366E-1,3.3080686E-2],"split_indices":[24,4,26,7,7,2,0,4,11,0,12,20,22,6,0,4,12,0,0,8,18,12,8,7,0,10,8,8,0,10,1,10,0,8,7,8,10,0,0,0,0,0,0,0,0,0,0,0,0,0,0,0,0,0,0,0,0,0,0],"split_type":[0,0,0,0,0,0,0,0,0,0,0,0,0,0,0,0,0,0,0,0,0,0,0,0,0,0,0,0,0,0,0,0,0,0,0,0,0,0,0,0,0,0,0,0,0,0,0,0,0,0,0,0,0,0,0,0,0,0,0],"sum_hessian":[1.2055332E3,4.1732288E2,7.8821027E2,3.993024E2,1.8020504E1,7.680634E2,2.0146832E1,9.733226E0,3.8956915E2,1.5272459E1,2.7480454E0,5.0110767E2,2.6695575E2,4.181926E0,5.5512996E0,1.2058006E2,2.689891E2,1.7199094E0,1.0281359E0,2.9048828E2,2.1061938E2,6.1938313E1,2.0501744E2,2.4573727E0,1.7245532E0,6.3543144E1,5.7036915E1,2.653592E2,3.6299164E0,1.0866614E2,1.8182216E2,2.0206496E2,8.554426E0,4.8844875E1,1.3093439E1,5.5501724E1,1.4951572E2,1.246541E0,1.2108318E0,1.9784018E1,4.375913E1,1.2078282E0,5.5829086E1,2.0074208E2,6.46171E1,3.2408684E1,7.6257454E1,1.5489784E2,2.692431E1,1.4571973E2,5.6345222E1,1.6942745E1,3.1902128E1,1.1208749E1,1.88469E0,1.634452E1,3.9157204E1,7.571187E1,7.3803856E1],"tree_param":{"num_deleted":"0","num_feature":"48","num_nodes":"59","size_leaf_vector":"1"}},{"base_weights":[-2.0605961E-3,-9.418067E-2,1.0307269E-1,-7.408669E-2,-7.274251E-1,6.214426E-2,3.6193895E-1,-1.4590177E-1,5.4975897E-2,-9.503532E-1,-3.9525035E-1,2.0292269E-2,3.550146E-1,-1.6313396E-2,-2.6985282E-1,-1.6209261E-2,4.3169925E-1,-3.572567E-2,-3.1133133E-1,3.8300934E-1,-7.153683E-1,-1.6821114E-2,3.5722855E-1,-7.330322E-2,5.654501E-1,-7.027937E-2,-5.00661E-1,-2.3417842E-1,8.069899E-2,2.3922952E-1,-3.8110554E-2,-2.2680243E-2,-8.1157917E-1,-1.800695E-1,7.13776E-2,1.4028899E-2,-1.06911875E-1,2.3084757E-1,-1.3450351E-1,-1.146032E-1,1.15831025E-1,2.224238E-1,-1.5778385E-1,-1.4373605E-1,4.111559E-2,1.2133695E-1,-2.9209254E-3,-2.7333426E-1,-6.469461E-2,-9.058738E-2,1.1823359E-2,1.21213095E-2,3.5766762E-1],"categories":[],"categories_nodes":[],"categories_segments":[],"categories_sizes":[],"default_left":[0,0,0,0,0,0,0,0,0,0,0,0,0,0,0,0,0,0,0,0,0,0,0,0,0,0,0,0,0,0,0,0,0,0,0,0,0,0,0,0,0,0,0,0,0,0,0,0,0,0,0,0,0],"id":11,"left_children":[1,3,5,7,9,11,-1,13,15,17,19,21,-1,23,25,27,-1,-1,-1,29,31,33,-1,35,37,39,41,43,45,-1,-1,-1,47,49,51,-1,-1,-1,-1,-1,-1,-1,-1,-1,-1,-1,-1,-1,-1,-1,-1,-1,-1],"loss_changes":[1.1377752E1,7.913334E0,2.47023E1,5.6432934E0,1.0420074E0,2.4850805E1,0E0,6.274562E0,2.1509745E1,6.5714073E-1,2.6159158E0,2.2262604E1,0E0,6.4128113E0,9.165206E0,4.4211125E0,0E0,0E0,0E0,8.1806064E-1,3.7008238E-1,7.1728153E0,0E0,5.995368E0,3.9154167E0,1.5552102E1,3.293621E0,5.921283E0,4.249747E0,0E0,0E0,0E0,1.5883732E-1,4.685808E0,1.1184869E1,0E0,0E0,0E0,0E0,0E0,0E0,0E0,0E0,0E0,0E0,0E0,0E0,0E0,0E0,0E0,0E0,0E0,0E0],"parents":[2147483647,0,0,1,1,2,2,3,3,4,4,5,5,7,7,8,8,9,9,10,10,11,11,13,13,14,14,15,15,19,19,20,20,21,21,23,23,24,24,25,25,26,26,27,27,28,28,32,32,33,33,34,34],"right_children":[2,4,6,8,10,12,-1,14,16,18,20,22,-1,24,26,28,-1,-1,-1,30,32,34,-1,36,38,40,42,44,46,-1,-1,-1,48,50,52,-1,-1,-1,-1,-1,-1,-1,-1,-1,-1,-1,-1,-1,-1,-1,-1,-1,-1],"split_conditions":[1E0,1.5677776E0,1E0,1E0,1.2602248E0,1E0,3.6193895E-1,-9.1823965E-1,1E0,-4.2896214E-1,1.6084834E0,1E0,3.550146E-1,1E0,1E0,1E0,4.3169925E-1,-3.572567E-2,-3.1133133E-1,1.1329205E0,1.0688024E0,1E0,3.5722855E-1,-5.783607E-1,1E0,1E0,-2.6046174E0,1E0,-3.8609758E-1,2.3922952E-1,-3.8110554E-2,-2.2680243E-2,1.3287735E0,9.610147E-1,1E0,1.4028899E-2,-1.06911875E-1,2.3084757E-1,-1.3450351E-1,-1.146032E-1,1.15831025E-1,2.224238E-1,-1.5778385E-1,-1.4373605E-1,4.111559E-2,1.2133695E-1,-2.9209254E-3,-2.7333426E-1,-6.469461E-2,-9.058738E-2,1.1823359E-2,1.21213095E-2,3.5766762E-1],"split_indices":[16,4,14,41,8,15,0,4,39,10,4,17,0,32,0,22,0,0,0,7,7,27,0,10,15,15,10,12,4,0,0,0,8,7,29,0,0,0,0,0,0,0,0,0,0,0,0,0,0,0,0,0,0],"split_type":[0,0,0,0,0,0,0,0,0,0,0,0,0,0,0,0,0,0,0,0,0,0,0,0,0,0,0,0,0,0,0,0,0,0,0,0,0,0,0,0,0,0,0,0,0,0,0,0,0,0,0,0,0],"sum_hessian":[1.1727924E3,6.2513745E2,5.476549E2,6.069934E2,1.8144001E1,5.290857E2,1.8569227E1,3.8990546E2,2.1708797E2,9.743779E0,8.400222E0,5.110288E2,1.805687E1,1.9117126E2,1.9873419E2,2.074085E2,9.679469E0,1.1519544E0,8.591825E0,2.3909538E0,6.009268E0,4.9627838E2,1.4750424E1,1.7491092E2,1.6260359E1,1.072782E2,9.1456E1,6.3397133E1,1.4401137E2,1.0082629E0,1.3826908E0,1.0190094E0,4.9902587E0,1.7371147E2,3.2256693E2,1.2340326E2,5.1507656E1,1.373663E1,2.5237284E0,6.3837257E1,4.3440945E1,1.2595909E0,9.019641E1,3.8020306E1,2.5376825E1,3.0685472E1,1.1332589E2,3.8228545E0,1.1674038E0,1.1144488E2,6.2266586E1,3.1490106E2,7.665852E0],"tree_param":{"num_deleted":"0","num_feature":"48","num_nodes":"53","size_leaf_vector":"1"}},{"base_weights":[1.0592676E-3,-7.013099E-2,9.606892E-2,-4.3612715E-2,-5.601686E-1,3.0976221E-2,4.2938638E-1,-1.9628976E-2,-5.097676E-1,-7.963012E-1,-3.8958915E-2,-1.2843484E-1,1.526834E-1,-6.585762E-2,2.2672133E-1,-9.336123E-1,-2.5417098E-1,1.2113785E-1,-8.719086E-1,-2.5246578E-1,3.9677477E-1,-4.069581E-2,-4.7583884E-1,1.0985905E-1,4.3364683E-1,1.586035E-1,-1.3811563E-1,2.4298413E-2,6.216884E-1,-1.1939511E0,-3.0166715E-1,2.4516958E-1,-6.1525047E-1,-9.402905E-3,-9.4737524E-1,-4.14542E-1,7.956819E-1,-1.0633463E0,2.8789747E-3,-5.2270734E-1,9.734328E-2,2.3438968E-1,-7.0104375E-2,1.0966286E-2,3.5271925E-1,-7.77579E-2,3.7041914E-2,-2.4493221E-2,4.1555074E-1,-4.2649347E-1,-9.426512E-3,-1.9556752E-1,7.067801E-2,-6.880568E-2,2.457361E-1,-2.4651188E-1,1.7000964E-1,-2.975885E-1,-4.728623E-2,-1.7011428E-1,-1.3124109E-2,3.4942183E-1,-8.406493E-2,-3.976873E-1,-9.642397E-2,3.5460483E-2,-1.1062477E-1,-1.7791906E-1,1.0540426E-2,1.0033953E-1,-9.124449E-2,-8.5859634E-2,4.3855086E-2],"categories":[],"categories_nodes":[],"categories_segments":[],"categories_sizes":[],"default_left":[0,0,0,0,0,0,0,0,0,0,0,0,0,0,0,0,0,0,0,0,0,0,0,0,0,0,0,0,0,0,0,0,0,0,0,0,0,0,0,0,0,0,0,0,0,0,0,0,0,0,0,0,0,0,0,0,0,0,0,0,0,0,0,0,0,0,0,0,0,0,0,0,0],"id":12,"left_children":[1,3,5,7,9,11,-1,13,15,17,19,21,23,25,27,29,31,-1,33,-1,35,37,39,41,-1,43,45,47,-1,49,51,53,55,-1,57,59,61,63,65,67,-1,69,71,-1,-1,-1,-1,-1,-1,-1,-1,-1,-1,-1,-1,-1,-1,-1,-1,-1,-1,-1,-1,-1,-1,-1,-1,-1,-1,-1,-1,-1,-1],"loss_changes":[7.7425447E0,8.479364E0,4.2570995E1,6.9427223E0,4.093195E0,9.110196E0,0E0,6.762491E0,3.0549774E0,2.4399405E0,4.355489E0,6.180373E0,1.4576434E1,8.125799E0,3.5007442E1,1.459137E0,3.8167224E0,0E0,1.3635292E0,0E0,2.9619255E0,7.2879977E0,1.7044296E0,5.8142014E0,0E0,1.5119694E1,1.2020309E1,1.2451191E1,0E0,1.9389353E0,1.012452E0,2.7064316E0,3.4145193E0,0E0,5.5210114E-1,1.6395926E-1,2.6272357E0,8.745508E-1,6.8062572E0,1.5529613E0,0E0,8.354561E0,5.0229E0,0E0,0E0,0E0,0E0,0E0,0E0,0E0,0E0,0E0,0E0,0E0,0E0,0E0,0E0,0E0,0E0,0E0,0E0,0E0,0E0,0E0,0E0,0E0,0E0,0E0,0E0,0E0,0E0,0E0,0E0],"parents":[2147483647,0,0,1,1,2,2,3,3,4,4,5,5,7,7,8,8,9,9,10,10,11,11,12,12,13,13,14,14,15,15,16,16,18,18,20,20,21,21,22,22,23,23,25,25,26,26,27,27,29,29,30,30,31,31,32,32,34,34,35,35,36,36,37,37,38,38,39,39,41,41,42,42],"right_children":[2,4,6,8,10,12,-1,14,16,18,20,22,24,26,28,30,32,-1,34,-1,36,38,40,42,-1,44,46,48,-1,50,52,54,56,-1,58,60,62,64,66,68,-1,70,72,-1,-1,-1,-1,-1,-1,-1,-1,-1,-1,-1,-1,-1,-1,-1,-1,-1,-1,-1,-1,-1,-1,-1,-1,-1,-1,-1,-1,-1,-1],"split_conditions":[1E0,1.0793089E0,1E0,6E0,1E0,1E0,4.2938638E-1,1E0,1E0,-1.7747042E0,9.4877577E-1,1E0,1E0,-1.240918E0,1E0,2.6519418E-1,-9.301998E-2,1.2113785E-1,1E0,-2.5246578E-1,1.3235433E0,-4.6061847E-1,1.7249459E0,1E0,4.3364683E-1,-1.2808552E0,1E0,1E0,6.216884E-1,1E0,8.791835E-1,8.7207496E-1,1.5108542E0,-9.402905E-3,1.4027933E0,2.333418E-1,1.4863663E0,8.9074016E-1,1E0,1.2483585E0,9.734328E-2,5.7279134E-1,-4.2346418E-2,1.0966286E-2,3.5271925E-1,-7.77579E-2,3.7041914E-2,-2.4493221E-2,4.1555074E-1,-4.2649347E-1,-9.426512E-3,-1.9556752E-1,7.067801E-2,-6.880568E-2,2.457361E-1,-2.4651188E-1,1.7000964E-1,-2.975885E-1,-4.728623E-2,-1.7011428E-1,-1.3124109E-2,3.4942183E-1,-8.406493E-2,-3.976873E-1,-9.642397E-2,3.5460483E-2,-1.1062477E-1,-1.7791906E-1,1.0540426E-2,1.0033953E-1,-9.124449E-2,-8.5859634E-2,4.3855086E-2],"split_indices":[38,4,36,9,12,27,0,14,26,7,8,3,29,4,17,4,4,0,5,0,4,10,10,2,0,4,20,15,0,1,7,7,10,0,10,10,4,7,1,8,0,10,10,0,0,0,0,0,0,0,0,0,0,0,0,0,0,0,0,0,0,0,0,0,0,0,0,0,0,0,0,0,0],"split_type":[0,0,0,0,0,0,0,0,0,0,0,0,0,0,0,0,0,0,0,0,0,0,0,0,0,0,0,0,0,0,0,0,0,0,0,0,0,0,0,0,0,0,0,0,0,0,0,0,0,0,0,0,0,0,0,0,0,0,0,0,0,0,0,0,0,0,0,0,0,0,0,0,0],"sum_hessian":[1.1427139E3,6.533922E2,4.8932166E2,6.208823E2,3.2509903E1,4.6755145E2,2.1770205E1,5.9149207E2,2.9390251E1,2.2010372E1,1.049953E1,2.0239755E2,2.651539E2,4.9865085E2,9.28412E1,1.00583105E1,1.933194E1,1.047237E0,2.0963135E1,3.3667836E0,7.1327467E0,1.6247949E2,3.9918056E1,2.5770245E2,7.4514475E0,1.2114208E2,3.7750876E2,8.457785E1,8.263352E0,6.493778E0,3.564532E0,8.247456E0,1.1084485E1,1.8436325E0,1.9119503E1,2.3381364E0,4.79461E0,5.6838245E0,1.5679567E2,3.8037365E1,1.8806893E0,1.521297E2,1.0557275E2,1.090881E2,1.2053984E1,2.5806946E2,1.19439316E2,7.934122E1,5.2366323E0,5.2438297E0,1.2499487E0,2.0287113E0,1.5358206E0,4.843457E0,3.4039989E0,9.695687E0,1.3887972E0,1.785542E1,1.2640831E0,1.2817043E0,1.056432E0,3.5085306E0,1.2860795E0,3.6180902E0,2.0657346E0,1.2018281E2,3.661286E1,3.3721237E1,4.316129E0,1.286094E2,2.3520285E1,5.264832E1,5.2924427E1],"tree_param":{"num_deleted":"0","num_feature":"48","num_nodes":"73","size_leaf_vector":"1"}},{"base_weights":[2.4976407E-3,1.3571871E-2,-5.127137E-1,-4.9817517E-2,9.87464E-2,6.245787E-2,-5.794983E-1,-5.240998E-3,-5.699037E-1,4.5165494E-2,4.1639647E-1,-9.4499975E-1,-3.085476E-1,-4.2300906E-2,2.0010866E-1,-6.79289E-1,6.953924E-2,-2.3488654E-1,1.0764248E-1,-9.2947684E-2,-3.0511016E-1,1.9220856E-1,-4.445737E-1,1.4423938E-1,-1.0179298E-1,3.549474E-2,4.866553E-1,-3.3530793E-1,-7.9670423E-1,3.8757274E-1,-1.8117665E-1,-3.97656E-2,-4.6798941E-1,4.1216582E-1,6.1117552E-2,1.4675635E-2,-7.694204E-1,1.3140865E-2,3.2897377E-1,-1.6970144E-1,-1.7298408E-2,-1.50759E-2,3.6298507E-1,-2.4217233E-1,2.9542116E-2,4.402133E-2,-2.673148E-1,-1.7101243E-1,2.2573406E-1,-3.297826E-1,1.9081548E-2,-2.646187E-1,-2.5060603E-2,-1.2837812E-1,1.4407241E-1,-3.466617E-1,2.2726133E-2,-1.22292526E-1,7.592225E-2,-2.9229167E-1,-7.3104694E-2],"categories":[],"categories_nodes":[],"categories_segments":[],"categories_sizes":[],"default_left":[0,0,0,0,0,0,0,0,0,0,0,0,0,0,0,0,0,0,0,0,0,0,0,0,0,0,0,0,0,0,0,0,0,0,0,0,0,0,0,0,0,0,0,0,0,0,0,0,0,0,0,0,0,0,0,0,0,0,0,0,0],"id":13,"left_children":[1,3,5,7,9,-1,11,13,15,17,-1,19,21,23,25,27,29,31,33,-1,-1,-1,35,37,39,41,-1,43,45,47,-1,49,51,53,55,57,59,-1,-1,-1,-1,-1,-1,-1,-1,-1,-1,-1,-1,-1,-1,-1,-1,-1,-1,-1,-1,-1,-1,-1,-1],"loss_changes":[6.395667E0,5.92858E0,1.2562771E0,1.4595247E1,3.2298355E1,0E0,1.8724794E0,4.429853E0,3.5235252E0,7.9129677E0,0E0,8.8357925E-2,2.0969186E0,5.4856486E0,2.0775644E1,1.4506989E0,1.9833101E0,3.7356253E0,5.206542E0,0E0,0E0,0E0,1.9306042E0,1.1393586E1,7.6312437E0,8.196383E0,0E0,2.648755E0,2.888464E0,2.5800524E0,0E0,5.110568E0,5.8987427E0,2.994382E0,5.812585E0,7.3858345E-1,5.762625E-1,0E0,0E0,0E0,0E0,0E0,0E0,0E0,0E0,0E0,0E0,0E0,0E0,0E0,0E0,0E0,0E0,0E0,0E0,0E0,0E0,0E0,0E0,0E0,0E0],"parents":[2147483647,0,0,1,1,2,2,3,3,4,4,6,6,7,7,8,8,9,9,11,11,12,12,13,13,14,14,15,15,16,16,17,17,18,18,22,22,23,23,24,24,25,25,27,27,28,28,29,29,31,31,32,32,33,33,34,34,35,35,36,36],"right_children":[2,4,6,8,10,-1,12,14,16,18,-1,20,22,24,26,28,30,32,34,-1,-1,-1,36,38,40,42,-1,44,46,48,-1,50,52,54,56,58,60,-1,-1,-1,-1,-1,-1,-1,-1,-1,-1,-1,-1,-1,-1,-1,-1,-1,-1,-1,-1,-1,-1,-1,-1],"split_conditions":[1.5677776E0,1E0,1E0,7.42875E-1,1E0,6.245787E-2,1.0321057E0,1E0,1.051779E0,1E0,4.1639647E-1,-4.2896214E-1,1.0493413E0,-1.240918E0,1E0,-4.5251682E-1,1.108683E0,1.6735561E-1,-9.5597786E-1,-9.2947684E-2,-3.0511016E-1,1.9220856E-1,1.6084834E0,-1.2808552E0,-1.2341312E0,1E0,4.866553E-1,8.6748034E-1,3.0589992E-1,9.4877577E-1,-1.8117665E-1,-1.8697537E0,1E0,1E0,-1.4397277E0,1E0,1.307067E0,1.3140865E-2,3.2897377E-1,-1.6970144E-1,-1.7298408E-2,-1.50759E-2,3.6298507E-1,-2.4217233E-1,2.9542116E-2,4.402133E-2,-2.673148E-1,-1.7101243E-1,2.2573406E-1,-3.297826E-1,1.9081548E-2,-2.646187E-1,-2.5060603E-2,-1.2837812E-1,1.4407241E-1,-3.466617E-1,2.2726133E-2,-1.22292526E-1,7.592225E-2,-2.9229167E-1,-7.3104694E-2],"split_indices":[4,20,5,8,18,0,7,14,7,22,0,10,7,4,17,10,4,8,4,0,0,0,4,4,4,15,0,8,4,8,0,8,35,24,10,2,8,0,0,0,0,0,0,0,0,0,0,0,0,0,0,0,0,0,0,0,0,0,0,0,0],"split_type":[0,0,0,0,0,0,0,0,0,0,0,0,0,0,0,0,0,0,0,0,0,0,0,0,0,0,0,0,0,0,0,0,0,0,0,0,0,0,0,0,0,0,0,0,0,0,0,0,0,0,0,0,0,0,0,0,0,0,0,0,0],"sum_hessian":[1.118732E3,1.0961447E3,2.258747E1,6.286786E2,4.67466E2,1.7355628E0,2.0851908E1,5.7997876E2,4.869983E1,4.4980707E2,1.7658953E1,7.8180094E0,1.3033897E1,4.9198343E2,8.799533E1,4.1532776E1,7.1670527E0,8.154106E1,3.68266E2,1.3362722E0,6.481737E0,1.1686335E0,1.1865264E1,1.1862003E2,3.733634E2,7.978472E1,8.210609E0,1.1550384E1,2.9982391E1,5.1564784E0,2.0105743E0,4.502394E1,3.651712E1,4.7765247E1,3.2050076E2,5.3112917E0,6.5539722E0,1.082497E2,1.037033E1,3.1408026E1,3.4195538E2,7.524803E1,4.5366945E0,5.1195865E0,6.4307976E0,2.675209E0,2.7307182E1,1.2675334E0,3.888945E0,3.145856E0,4.1878086E1,1.6958158E1,1.9558962E1,3.1842031E0,4.4581043E1,2.8831646E0,3.1761758E2,1.660261E0,3.6510308E0,4.102122E0,2.4518507E0],"tree_param":{"num_deleted":"0","num_feature":"48","num_nodes":"61","size_leaf_vector":"1"}},{"base_weights":[1.9911642E-3,-6.279756E-2,7.470718E-2,-5.3175434E-2,-7.1941787E-1,4.3757744E-2,3.313758E-1,-1.04959734E-1,5.8520038E-2,-7.8019166E-1,-4.6397783E-2,1.174775E-2,3.306428E-1,-1.6026953E-2,-2.6399904E-1,-4.882919E-2,4.2152426E-1,-2.6432827E-1,-5.627472E-2,-1.591572E-2,3.32892E-1,-3.3419553E-2,9.9181294E-1,-5.1034063E-1,-1.23517774E-1,-1.4104226E-1,4.2164168E-1,-2.1950188E-1,5.4053646E-2,-2.5551317E-2,9.886272E-2,3.983635E-1,5.1285822E-2,1.9578929E-1,-1.809677E-1,1.895912E-1,-5.1610354E-2,-1.5015896E-1,6.1188587E-3,-8.94746E-2,5.003792E-2,6.2128887E-2,-1.3551426E-2],"categories":[],"categories_nodes":[],"categories_segments":[],"categories_sizes":[],"default_left":[0,0,0,0,0,0,0,0,0,0,0,0,0,0,0,0,0,0,0,0,0,0,0,0,0,0,0,0,0,0,0,0,0,0,0,0,0,0,0,0,0,0,0],"id":14,"left_children":[1,3,5,7,9,11,-1,13,15,17,-1,19,-1,21,23,25,-1,-1,-1,27,-1,29,31,33,35,37,-1,39,41,-1,-1,-1,-1,-1,-1,-1,-1,-1,-1,-1,-1,-1,-1],"loss_changes":[5.180572E0,3.6359076E0,1.6465895E1,3.3274279E0,1.648612E-1,1.7063116E1,0E0,5.549777E0,2.6453892E1,2.6904392E-1,0E0,1.4907195E1,0E0,4.4664745E0,4.8083887E0,2.299891E1,0E0,0E0,0E0,6.8377357E0,0E0,4.7163486E0,9.655981E-1,5.881502E0,3.4429054E0,9.341761E0,0E0,3.7841039E0,5.4370394E0,0E0,0E0,0E0,0E0,0E0,0E0,0E0,0E0,0E0,0E0,0E0,0E0,0E0,0E0],"parents":[2147483647,0,0,1,1,2,2,3,3,4,4,5,5,7,7,8,8,9,9,11,11,13,13,14,14,15,15,19,19,21,21,22,22,23,23,24,24,25,25,27,27,28,28],"right_children":[2,4,6,8,10,12,-1,14,16,18,-1,20,-1,22,24,26,-1,-1,-1,28,-1,30,32,34,36,38,-1,40,42,-1,-1,-1,-1,-1,-1,-1,-1,-1,-1,-1,-1,-1,-1],"split_conditions":[1E0,1.6084834E0,1E0,1E0,1.3287735E0,1E0,3.313758E-1,1.14112124E-1,1E0,1E0,-4.6397783E-2,1E0,3.306428E-1,8.081408E-1,1E0,1E0,4.2152426E-1,-2.6432827E-1,-5.627472E-2,1E0,3.32892E-1,1E0,1E0,-1.6661644E0,-5.4338014E-1,-4.687289E-1,4.2164168E-1,6.315458E-1,-1.1103027E-1,-2.5551317E-2,9.886272E-2,3.983635E-1,5.1285822E-2,1.9578929E-1,-1.809677E-1,1.895912E-1,-5.1610354E-2,-1.5015896E-1,6.1188587E-3,-8.94746E-2,5.003792E-2,6.2128887E-2,-1.3551426E-2],"split_indices":[16,4,14,15,8,15,0,8,14,1,0,17,0,4,41,17,0,0,0,6,0,38,2,10,10,10,0,4,8,0,0,0,0,0,0,0,0,0,0,0,0,0,0],"split_type":[0,0,0,0,0,0,0,0,0,0,0,0,0,0,0,0,0,0,0,0,0,0,0,0,0,0,0,0,0,0,0,0,0,0,0,0,0,0,0,0,0,0,0],"sum_hessian":[1.0976382E3,5.805312E2,5.17107E2,5.7321234E2,7.3188825E0,5.0303256E2,1.4074412E1,3.916812E2,1.815311E2,6.263415E0,1.0554678E0,4.892468E2,1.3785774E1,2.5191455E2,1.3976668E2,1.6902037E2,1.2510742E1,4.936142E0,1.3272728E0,4.7818356E2,1.1063235E1,2.4859137E2,3.3231766E0,4.980249E1,8.996418E1,1.5979146E2,9.2289E0,1.21762E2,3.5642157E2,2.1823985E2,3.0351524E1,1.9196098E0,1.403567E0,3.2377565E0,4.656473E1,4.703096E0,8.5261086E1,4.88695E1,1.1092196E2,1.0133303E2,2.0428967E1,1.3976454E2,2.1665701E2],"tree_param":{"num_deleted":"0","num_feature":"48","num_nodes":"43","size_leaf_vector":"1"}},{"base_weights":[4.942687E-3,-1.16730295E-1,3.6335826E-2,-3.5937577E-1,-2.6318368E-2,2.3909952E-2,3.1636518E-1,-6.007024E-1,-1.5013243E-1,-7.1603733E-1,-2.0421449E-4,1.7299611E-2,3.5717207E-1,-8.848305E-1,-2.535175E-2,-4.2700574E-2,-3.247679E-1,3.637136E-2,-2.7535585E-1,3.732845E-2,-4.7430652E-1,3.3914268E-2,-2.9133463E-1,-4.5054644E-1,-3.0438063E-1,3.4575874E-1,-2.132793E-1,-3.8669991E-1,2.3085736E-1,8.5162663E-1,1.6689515E-2,-3.0452663E-1,8.4790066E-2,5.331203E-3,2.2039467E-1,2.3774259E-1,-3.6266524E-1,-1.8626304E-1,4.734302E-2,2.134893E-1,-1.9518046E-1,-2.6181638E-1,5.2789915E-3,1.0332187E-1,-2.1674295E-1,5.293971E-1,-9.72925E-2,-4.468291E-2,3.5977762E-2,2.4257363E-1,-7.54422E-2,2.3747068E-2,-2.5368772E-2,-4.7039237E-2,9.222145E-2,-1.961222E-1,-9.370952E-3],"categories":[],"categories_nodes":[],"categories_segments":[],"categories_sizes":[],"default_left":[0,0,0,0,0,0,0,0,0,0,0,0,0,0,0,0,0,0,0,0,0,0,0,0,0,0,0,0,0,0,0,0,0,0,0,0,0,0,0,0,0,0,0,0,0,0,0,0,0,0,0,0,0,0,0,0,0],"id":15,"left_children":[1,3,5,7,9,11,-1,13,15,17,19,21,-1,23,25,27,-1,-1,-1,29,31,33,35,37,-1,39,-1,41,43,45,47,-1,49,51,53,-1,55,-1,-1,-1,-1,-1,-1,-1,-1,-1,-1,-1,-1,-1,-1,-1,-1,-1,-1,-1,-1],"loss_changes":[4.1220455E0,4.8462925E0,1.08266535E1,2.9398699E0,2.9237106E0,6.5222087E0,0E0,4.478531E0,3.3067958E0,1.1119094E0,2.818739E0,4.34098E0,0E0,5.7995987E-1,2.8235278E0,3.0117025E0,0E0,0E0,0E0,2.4527967E0,3.5994937E0,4.2756166E0,3.631012E0,7.230722E-1,0E0,3.104488E0,0E0,2.7919283E0,2.1892102E0,4.446681E0,2.4832852E0,0E0,1.8185225E0,4.630706E0,3.547247E0,0E0,3.9604812E0,0E0,0E0,0E0,0E0,0E0,0E0,0E0,0E0,0E0,0E0,0E0,0E0,0E0,0E0,0E0,0E0,0E0,0E0,0E0,0E0],"parents":[2147483647,0,0,1,1,2,2,3,3,4,4,5,5,7,7,8,8,9,9,10,10,11,11,13,13,14,14,15,15,19,19,20,20,21,21,22,22,23,23,25,25,27,27,28,28,29,29,30,30,32,32,33,33,34,34,36,36],"right_children":[2,4,6,8,10,12,-1,14,16,18,20,22,-1,24,26,28,-1,-1,-1,30,32,34,36,38,-1,40,-1,42,44,46,48,-1,50,52,54,-1,56,-1,-1,-1,-1,-1,-1,-1,-1,-1,-1,-1,-1,-1,-1,-1,-1,-1,-1,-1,-1],"split_conditions":[1E0,6.914389E-2,1E0,1E0,-2.7200884E-1,1E0,3.1636518E-1,1E0,1.1815017E0,7.966143E-1,9E0,9.164859E-1,3.5717207E-1,-1.7490042E0,1E0,1E0,-3.247679E-1,3.637136E-2,-2.7535585E-1,-1.9447806E-1,1.2820504E0,8.986945E-1,6.012215E-1,1.0386032E0,-3.0438063E-1,1.0793089E0,-2.132793E-1,1E0,3.430138E-2,-1.3330659E0,1E0,-3.0452663E-1,1.2947055E0,1E0,1E0,2.3774259E-1,9.745556E-1,-1.8626304E-1,4.734302E-2,2.134893E-1,-1.9518046E-1,-2.6181638E-1,5.2789915E-3,1.0332187E-1,-2.1674295E-1,5.293971E-1,-9.72925E-2,-4.468291E-2,3.5977762E-2,2.4257363E-1,-7.54422E-2,2.3747068E-2,-2.5368772E-2,-4.7039237E-2,9.222145E-2,-1.961222E-1,-9.370952E-3],"split_indices":[11,10,12,33,8,13,0,14,8,10,9,4,0,7,43,2,0,0,0,8,8,7,8,4,0,4,0,32,10,7,35,0,8,0,6,0,7,0,0,0,0,0,0,0,0,0,0,0,0,0,0,0,0,0,0,0,0],"split_type":[0,0,0,0,0,0,0,0,0,0,0,0,0,0,0,0,0,0,0,0,0,0,0,0,0,0,0,0,0,0,0,0,0,0,0,0,0,0,0,0,0,0,0,0,0,0,0,0,0,0,0,0,0,0,0,0,0],"sum_hessian":[1.0770448E3,2.2033928E2,8.567055E2,5.9005848E1,1.6133344E2,8.473878E2,9.31769E0,2.653333E1,3.247252E1,4.921766E0,1.5641167E2,8.436226E2,3.7651563E0,1.7401815E1,9.1315155E0,3.0055405E1,2.4171116E0,1.0334673E0,3.8882985E0,1.4579126E2,1.0620409E1,8.013726E2,4.2250042E1,5.032447E0,1.2369368E1,6.2461076E0,2.885408E0,1.3130365E1,1.692504E1,2.6085658E0,1.431827E2,4.9840426E0,5.636366E0,6.957579E2,1.0561474E2,1.9846725E0,4.026537E1,3.9155686E0,1.1168785E0,4.7775273E0,1.4685804E0,5.4364142E0,7.693951E0,1.5694454E1,1.2305862E0,1.1866075E0,1.4219584E0,5.4807205E1,8.837549E1,1.3423792E0,4.293987E0,3.8208676E2,3.136711E2,1.9646103E1,8.5968636E1,2.0920002E1,1.9345367E1],"tree_param":{"num_deleted":"0","num_feature":"48","num_nodes":"57","size_leaf_vector":"1"}},{"base_weights":[2.4638062E-3,-8.327806E-2,4.755925E-2,1.443284E-1,-1.1843229E-1,2.201223E-2,3.5117495E-1,2.0455594E-1,-6.67451E-1,-8.6449915E-1,-1.01296164E-1,3.5118204E-2,-7.735212E-1,2.5744686E-1,-6.497358E-1,-5.1863357E-2,-2.9132912E-1,-1.0853599E0,3.2861467E-2,-1.5807025E-1,6.9500946E-2,-1.1342407E-1,9.474947E-2,-4.3621486E-1,-4.1772273E-1,3.9333948E-1,-1.02834105E-1,-2.5871155E-1,-3.4484785E-2,-9.93312E-2,-4.1228545E-1,-2.4998905E-1,6.766772E-2,-4.2078715E-2,4.4374138E-1,-1.7493165E-1,2.1022806E-1,1.470266E-1,-7.446287E-2,-1.1650659E-2,-2.9480487E-1,2.7214012E-1,5.210877E-2,-2.4993847E-1,1.4113435E-1,-1.5812239E-1,-5.4480676E-2,-1.1279575E-1,6.268692E-2,2.0370227E-1,-6.032265E-2,-3.797442E-2,-2.7462557E-1,1.364497E-2,3.883764E-1,-2.2922847E-3,6.384134E-2,2.3671363E-1,-3.491785E-2,-1.19487755E-1,1.4315271E-1],"categories":[],"categories_nodes":[],"categories_segments":[],"categories_sizes":[],"default_left":[0,0,0,0,0,0,0,0,0,0,0,0,0,0,0,0,0,0,0,0,0,0,0,0,0,0,0,0,0,0,0,0,0,0,0,0,0,0,0,0,0,0,0,0,0,0,0,0,0,0,0,0,0,0,0,0,0,0,0,0,0],"id":16,"left_children":[1,3,5,7,9,11,-1,13,15,17,19,21,23,25,27,-1,-1,29,-1,31,33,35,37,-1,39,41,43,-1,-1,-1,-1,45,47,49,-1,51,53,55,57,59,-1,-1,-1,-1,-1,-1,-1,-1,-1,-1,-1,-1,-1,-1,-1,-1,-1,-1,-1,-1,-1],"loss_changes":[4.120199E0,2.9558816E0,2.0007952E1,2.5610297E0,3.986887E0,7.156335E0,0E0,2.2877605E0,3.81701E-1,1.6297174E0,3.042949E0,5.977748E0,2.0864673E0,2.2392142E0,2.4427915E-1,0E0,0E0,8.125291E-1,0E0,4.8925405E0,1.2440752E1,3.8872187E0,4.267837E0,0E0,1.9865174E0,3.5459032E0,5.873398E0,0E0,0E0,0E0,0E0,3.0724468E0,4.3899474E0,8.609196E0,0E0,5.722789E0,5.5401907E0,3.7453465E0,4.228298E0,1.3389919E0,0E0,0E0,0E0,0E0,0E0,0E0,0E0,0E0,0E0,0E0,0E0,0E0,0E0,0E0,0E0,0E0,0E0,0E0,0E0,0E0,0E0],"parents":[2147483647,0,0,1,1,2,2,3,3,4,4,5,5,7,7,8,8,9,9,10,10,11,11,12,12,13,13,14,14,17,17,19,19,20,20,21,21,22,22,24,24,25,25,26,26,31,31,32,32,33,33,35,35,36,36,37,37,38,38,39,39],"right_children":[2,4,6,8,10,12,-1,14,16,18,20,22,24,26,28,-1,-1,30,-1,32,34,36,38,-1,40,42,44,-1,-1,-1,-1,46,48,50,-1,52,54,56,58,60,-1,-1,-1,-1,-1,-1,-1,-1,-1,-1,-1,-1,-1,-1,-1,-1,-1,-1,-1,-1,-1],"split_conditions":[1E0,-2.363637E0,1E0,1E0,-1.2808552E0,1.0846678E0,3.5117495E-1,1E0,1E0,1E0,1E0,1E0,1E0,-1.7111757E0,-1.7405242E0,-5.1863357E-2,-2.9132912E-1,-8.926671E-2,3.2861467E-2,1E0,1E0,1E0,1E0,-4.3621486E-1,1.2182654E0,-6.6427E-1,-1.6905216E0,-2.5871155E-1,-3.4484785E-2,-9.93312E-2,-4.1228545E-1,-6.323077E-1,-6.482686E-2,-6.089641E-1,4.4374138E-1,6.525249E-1,1E0,1E0,-1.7122486E0,9.6046436E-1,-2.9480487E-1,2.7214012E-1,5.210877E-2,-2.4993847E-1,1.4113435E-1,-1.5812239E-1,-5.4480676E-2,-1.1279575E-1,6.268692E-2,2.0370227E-1,-6.032265E-2,-3.797442E-2,-2.7462557E-1,1.364497E-2,3.883764E-1,-2.2922847E-3,6.384134E-2,2.3671363E-1,-3.491785E-2,-1.19487755E-1,1.4315271E-1],"split_indices":[33,8,35,14,4,7,0,15,6,29,14,6,6,7,7,0,0,10,0,39,17,44,1,0,8,10,7,0,0,0,0,10,7,8,0,8,43,22,8,4,0,0,0,0,0,0,0,0,0,0,0,0,0,0,0,0,0,0,0,0,0],"split_type":[0,0,0,0,0,0,0,0,0,0,0,0,0,0,0,0,0,0,0,0,0,0,0,0,0,0,0,0,0,0,0,0,0,0,0,0,0,0,0,0,0,0,0,0,0,0,0,0,0,0,0,0,0,0,0,0,0,0,0,0,0],"sum_hessian":[1.0635718E3,3.662874E2,6.972844E2,4.8589386E1,3.1769803E2,6.8277203E2,1.4512384E1,4.592978E1,2.6596074E0,6.022973E0,3.1167508E2,6.726464E2,1.0125621E1,4.3909874E1,2.0199053E0,1.6087098E0,1.0508975E0,4.816543E0,1.20643E0,2.3397482E2,7.770025E1,1.9242102E2,4.8022537E2,2.4166403E0,7.70898E0,3.1817158E1,1.2092715E1,1.006971E0,1.0129344E0,1.9283789E0,2.888164E0,1.6619432E2,6.77805E1,7.290001E1,4.8002424E0,1.6207874E2,3.0342299E1,3.669802E2,1.13245186E2,5.079005E0,2.6299756E0,8.590974E0,2.3226183E1,5.118757E0,6.973958E0,3.1570711E1,1.3462361E2,1.5970672E1,5.180983E1,1.2579331E1,6.0320675E1,1.5324359E2,8.83513E0,2.7244967E1,3.097333E0,1.0976554E2,2.5721463E2,4.4191313E0,1.0882605E2,2.9393246E0,2.13968E0],"tree_param":{"num_deleted":"0","num_feature":"48","num_nodes":"61","size_leaf_vector":"1"}},{"base_weights":[1.8430727E-3,-5.7594824E-1,6.6502593E-3,-1.8019933E-1,-2.662352E-1,1.1846422E-2,-5.164225E-1,-3.4428972E-1,2.8950954E-2,-1.1742447E-2,1.2176989E-1,-7.1027124E-1,-2.2905287E-1,-1.46246E-1,-1.2671265E-2,3.50118E-1,-2.8080635E-2,4.9438104E-2,3.725537E-1,-2.4343787E-1,-4.486902E-2,-2.4318509E-1,1.4283836E-1,1.3332957E0,2.2810295E-1,-1.3996376E-1,1.6649859E-2,-1.1230863E-2,3.683784E-1,-1.1191335E-1,2.0603727E-1,4.824131E-1,9.67054E-2,-1.9193599E-3,2.2175689E-1,2.2534166E-2,-6.2217128E-2,-9.451954E-4,3.2458404E-1,-2.667127E-2,3.1174475E-1],"categories":[],"categories_nodes":[],"categories_segments":[],"categories_sizes":[],"default_left":[0,0,0,0,0,0,0,0,0,0,0,0,0,0,0,0,0,0,0,0,0,0,0,0,0,0,0,0,0,0,0,0,0,0,0,0,0,0,0,0,0],"id":17,"left_children":[1,3,5,7,-1,9,11,13,-1,15,17,19,21,-1,-1,23,25,27,-1,-1,-1,-1,29,31,33,35,37,39,-1,-1,-1,-1,-1,-1,-1,-1,-1,-1,-1,-1,-1],"loss_changes":[2.9192777E0,9.091811E-1,2.8381748E0,2.6362634E-1,0E0,2.6791983E0,4.0949726E-1,1.2665814E-1,0E0,5.042E0,1.4727885E1,1.9964528E-1,1.3298984E0,0E0,0E0,4.115803E0,4.0826383E0,1.2348115E1,0E0,0E0,0E0,0E0,1.4556268E0,5.541339E-1,4.077601E0,3.3940783E0,1.2308156E1,1.3558912E1,0E0,0E0,0E0,0E0,0E0,0E0,0E0,0E0,0E0,0E0,0E0,0E0,0E0],"parents":[2147483647,0,0,1,1,2,2,3,3,5,5,6,6,7,7,9,9,10,10,11,11,12,12,15,15,16,16,17,17,22,22,23,23,24,24,25,25,26,26,27,27],"right_children":[2,4,6,8,-1,10,12,14,-1,16,18,20,22,-1,-1,24,26,28,-1,-1,-1,-1,30,32,34,36,38,40,-1,-1,-1,-1,-1,-1,-1,-1,-1,-1,-1,-1,-1],"split_conditions":[-1.7920581E0,-1.2689596E0,1.6084834E0,1E0,-2.662352E-1,1E0,1E0,-1.8008024E0,2.8950954E-2,-1.744759E0,1E0,1.2138071E0,3.4461868E-1,-1.46246E-1,-1.2671265E-2,-6.129852E-1,1E0,1E0,3.725537E-1,-2.4343787E-1,-4.486902E-2,-2.4318509E-1,1E0,-1.019052E0,-8.376773E-1,-6.706266E-1,1E0,1E0,3.683784E-1,-1.1191335E-1,2.0603727E-1,4.824131E-1,9.67054E-2,-1.9193599E-3,2.2175689E-1,2.2534166E-2,-6.2217128E-2,-9.451954E-4,3.2458404E-1,-2.667127E-2,3.1174475E-1],"split_indices":[7,4,4,6,0,15,24,7,0,7,14,7,10,0,0,10,24,17,0,0,0,0,33,4,8,10,26,16,0,0,0,0,0,0,0,0,0,0,0,0,0],"split_type":[0,0,0,0,0,0,0,0,0,0,0,0,0,0,0,0,0,0,0,0,0,0,0,0,0,0,0,0,0,0,0,0,0,0,0,0,0,0,0,0,0],"sum_hessian":[1.048647E3,7.6723514E0,1.0409746E3,4.074446E0,3.5979052E0,1.0317031E3,9.271503E0,2.404354E0,1.6700921E0,8.5015784E2,1.8154523E2,4.657858E0,4.613645E0,1.2146142E0,1.18974E0,3.584428E1,8.143136E2,1.7151344E2,1.0031786E1,3.5669432E0,1.090915E0,1.3393899E0,3.274255E0,2.8612766E0,3.2983006E1,2.3196843E2,5.8234515E2,1.6405815E2,7.4552865E0,1.8417457E0,1.4325092E0,1.7854131E0,1.0758635E0,2.3286152E1,9.696853E0,5.5337807E1,1.7663062E2,5.726976E2,9.647598E0,1.5361407E2,1.0444075E1],"tree_param":{"num_deleted":"0","num_feature":"48","num_nodes":"41","size_leaf_vector":"1"}},{"base_weights":[3.3825997E-3,-6.27375E-2,3.7711475E-2,-1.3713747E-1,1.1326333E-2,1.8371012E-2,3.2826474E-1,-2.9692742E-1,-9.782868E-2,-1.983863E-2,3.4866872E-1,2.8466482E-2,-6.379378E-1,-2.3396507E-1,1.0668832E-1,4.606526E-2,-2.2440475E-1,1.8353146E-2,6.5421003E-1,-3.7254137E-1,-3.2651794E-1,5.851891E-1,-2.8720668E-1,-4.8118314E-1,1.9368723E-1,1.27058765E-2,8.0931103E-1,-9.481199E-1,-7.79596E-2,-9.470171E-2,6.405361E-2,1.1863966E0,-1.3905194E-2,8.546004E-2,-7.6716274E-1,-5.968029E-3,3.7094015E-1,-1.9491597E-1,-2.9983236E-2,2.0409332E-1,-2.1327646E-1,1.3590679E-2,1.5859579E-1,-1.1535047E-2,9.29289E-2,-9.230643E-3,3.1420153E-1,-3.7174982E-1,-3.9519942E-3,1.1182372E-2,-2.5216067E-1,-1.09335326E-1,-1.2263002E-4,4.3183356E-3,5.607294E-2,4.4461936E-1,-5.928575E-3,-1.9081299E-1,1.08499125E-1,-9.1562696E-2,2.1816403E-1,-7.434585E-2,-2.672007E-1],"categories":[],"categories_nodes":[],"categories_segments":[],"categories_sizes":[],"default_left":[0,0,0,0,0,0,0,0,0,0,0,0,0,0,0,0,0,0,0,0,0,0,0,0,0,0,0,0,0,0,0,0,0,0,0,0,0,0,0,0,0,0,0,0,0,0,0,0,0,0,0,0,0,0,0,0,0,0,0,0,0,0,0],"id":18,"left_children":[1,3,5,7,9,11,-1,-1,13,15,-1,17,19,21,23,25,27,29,31,-1,33,35,37,39,41,43,45,47,49,51,53,55,57,59,61,-1,-1,-1,-1,-1,-1,-1,-1,-1,-1,-1,-1,-1,-1,-1,-1,-1,-1,-1,-1,-1,-1,-1,-1,-1,-1,-1,-1],"loss_changes":[2.3592303E0,1.9590167E0,1.3958515E1,5.8451753E0,6.441353E0,4.476154E0,0E0,0E0,4.774491E0,2.3724444E0,0E0,4.1874495E0,1.5193801E0,4.648364E0,3.6149466E0,3.3848944E0,4.468832E0,3.3854122E0,3.7590103E0,0E0,1.5377629E0,2.6249676E0,6.528718E0,2.928908E0,2.9928455E0,1.9688524E0,1.1456482E0,1.9222064E0,3.259705E0,4.799224E0,2.8426619E0,2.122799E0,1.5514127E0,1.4983193E0,3.7045717E-2,0E0,0E0,0E0,0E0,0E0,0E0,0E0,0E0,0E0,0E0,0E0,0E0,0E0,0E0,0E0,0E0,0E0,0E0,0E0,0E0,0E0,0E0,0E0,0E0,0E0,0E0,0E0,0E0],"parents":[2147483647,0,0,1,1,2,2,3,3,4,4,5,5,8,8,9,9,11,11,12,12,13,13,14,14,15,15,16,16,17,17,18,18,20,20,21,21,22,22,23,23,24,24,25,25,26,26,27,27,28,28,29,29,30,30,31,31,32,32,33,33,34,34],"right_children":[2,4,6,8,10,12,-1,-1,14,16,-1,18,20,22,24,26,28,30,32,-1,34,36,38,40,42,44,46,48,50,52,54,56,58,60,62,-1,-1,-1,-1,-1,-1,-1,-1,-1,-1,-1,-1,-1,-1,-1,-1,-1,-1,-1,-1,-1,-1,-1,-1,-1,-1,-1,-1],"split_conditions":[1E0,1E0,1E0,-2.9500508E-1,1E0,1.0846678E0,3.2826474E-1,-2.9692742E-1,1E0,1.21411666E-1,3.4866872E-1,1.3227465E0,1E0,-1.7490042E0,1.1887888E-1,1E0,2.8146622E-1,1E0,5.348516E-1,-3.7254137E-1,1.1710505E0,1E0,1E0,-7.085186E-1,1E0,1E0,1E0,8.824069E-1,1.1739115E0,1E0,8.621486E-1,3.676308E-2,-5.3921513E-2,9.6046436E-1,1.1058517E0,-5.968029E-3,3.7094015E-1,-1.9491597E-1,-2.9983236E-2,2.0409332E-1,-2.1327646E-1,1.3590679E-2,1.5859579E-1,-1.1535047E-2,9.29289E-2,-9.230643E-3,3.1420153E-1,-3.7174982E-1,-3.9519942E-3,1.1182372E-2,-2.5216067E-1,-1.09335326E-1,-1.2263002E-4,4.3183356E-3,5.607294E-2,4.4461936E-1,-5.928575E-3,-1.9081299E-1,1.08499125E-1,-9.1562696E-2,2.1816403E-1,-7.434585E-2,-2.672007E-1],"split_indices":[33,42,35,8,43,7,0,0,12,7,0,10,6,7,10,38,7,6,8,0,8,11,20,10,18,14,30,10,10,27,7,7,7,4,7,0,0,0,0,0,0,0,0,0,0,0,0,0,0,0,0,0,0,0,0,0,0,0,0,0,0,0,0],"split_type":[0,0,0,0,0,0,0,0,0,0,0,0,0,0,0,0,0,0,0,0,0,0,0,0,0,0,0,0,0,0,0,0,0,0,0,0,0,0,0,0,0,0,0,0,0,0,0,0,0,0,0,0,0,0,0,0,0,0,0,0,0,0,0],"sum_hessian":[1.0373445E3,3.5423416E2,6.831103E2,1.7629124E2,1.7794293E2,6.7182916E2,1.1281176E1,6.703834E0,1.695874E2,1.7420836E2,3.7345753E0,6.625936E2,9.2355175E0,1.0172821E2,6.78592E1,1.3234602E2,4.186234E1,6.53068E2,9.525626E0,2.1258245E0,7.1096926E0,5.5986347E0,9.612957E1,8.163779E0,5.969542E1,1.2777785E2,4.568173E0,6.124001E0,3.573834E1,1.8768826E2,4.6537973E2,4.8703876E0,4.655239E0,4.090946E0,3.0187464E0,3.4047966E0,2.193838E0,3.190212E1,6.4227455E1,1.0242434E0,7.1395354E0,4.21561E1,1.7539318E1,1.0974866E2,1.8029188E1,1.2008162E0,3.3673568E0,4.4220443E0,1.7019566E0,3.1873064E1,3.8652737E0,4.787224E1,1.3981602E2,3.3221408E2,1.3316563E2,3.7278302E0,1.1425575E0,1.4913085E0,3.1639307E0,2.868906E0,1.2220402E0,1.1575956E0,1.8611507E0],"tree_param":{"num_deleted":"0","num_feature":"48","num_nodes":"63","size_leaf_vector":"1"}},{"base_weights":[2.0640856E-3,6.914283E-2,-2.8175177E-2,2.9586412E-2,4.3227357E-1,-1.1127514E-1,3.7212104E-2,2.1942052E-1,-5.8373805E-2,-5.966065E-1,6.303189E-1,-5.9989836E-2,-4.543692E-1,-3.1836573E-3,3.7961745E-1,3.107824E-1,-2.5936648E-1,-5.550852E-1,-1.0825185E-2,-3.2121944E-1,-1.2201866E-1,9.6973574E-1,2.8077465E-1,-1.6134872E-1,1.5872625E-1,-3.1682286E-1,-8.10461E-1,-9.077687E-1,6.927946E-3,-2.2665596E-1,4.0009278E-1,7.715735E-1,-6.698337E-1,-6.9770765E-1,4.484917E-2,7.508278E-2,-2.4058335E-1,1.1872525E-1,-2.2881193E-1,3.6014375E-1,1.1006485E0,-3.647298E-1,4.9513182E-1,-3.7197235E-1,-2.481405E-2,-5.8689284E-1,3.2244286E-1,-4.5634326E-1,5.3265292E-2,-3.187256E-1,-2.4443096E-1,-3.7967482E-1,-2.4964731E-2,-2.3497397E-1,3.8370334E-2,-1.338003E-1,2.3439674E-1,1.5243307E-1,-3.0823858E-2,5.9163895E-2,2.6827347E-1,1.4334269E-1,-3.3110037E-1,-2.670678E-1,-7.716398E-2,1.8172912E-1,-1.8091024E-1,-7.0562406E-4,1.225914E-1,-4.205877E-1,-3.8317177E-2,2.1156025E-1,-4.00945E-2,3.596136E-1,1.0631002E-1,-2.6972773E-2,3.197351E-1,-6.555175E-2,-2.6363435E-1,-2.0965588E-1,2.644493E-3,-2.2670113E-1,1.870397E-1,6.930531E-2,3.9281082E-1,-1.7281098E-2,-2.499604E-1,1.2500308E-1,-2.56312E-1,1.3167767E-1,-2.1503606E-1,-1.1479169E-2,-1.9730064E-1,2.4716295E-1,8.953096E-3],"categories":[],"categories_nodes":[],"categories_segments":[],"categories_sizes":[],"default_left":[0,0,0,0,0,0,0,0,0,0,0,0,0,0,0,0,0,0,0,0,0,0,0,0,0,0,0,0,0,0,0,0,0,0,0,0,0,0,0,0,0,0,0,0,0,0,0,0,0,0,0,0,0,0,0,0,0,0,0,0,0,0,0,0,0,0,0,0,0,0,0,0,0,0,0,0,0,0,0,0,0,0,0,0,0,0,0,0,0,0,0,0,0,0,0],"id":19,"left_children":[1,3,5,7,9,11,13,15,17,19,21,23,25,27,-1,29,31,33,35,-1,37,39,41,43,45,47,49,51,53,55,57,59,61,63,65,67,69,-1,-1,71,73,-1,75,77,79,81,83,85,87,-1,89,-1,-1,91,93,-1,-1,-1,-1,-1,-1,-1,-1,-1,-1,-1,-1,-1,-1,-1,-1,-1,-1,-1,-1,-1,-1,-1,-1,-1,-1,-1,-1,-1,-1,-1,-1,-1,-1,-1,-1,-1,-1,-1,-1],"loss_changes":[2.0838723E0,4.5724373E0,3.8521001E0,4.837318E0,6.750471E0,5.4643E0,1.9704023E1,4.091668E0,4.675862E0,1.1211811E0,2.8977995E0,6.0702434E0,1.7236071E0,3.531694E0,0E0,3.8085575E0,6.9653444E0,1.5114279E0,3.609109E0,0E0,1.5985454E0,6.5292454E-1,5.2762823E0,5.3630767E0,1.0790937E1,1.6151116E0,1.2555151E0,1.153985E0,2.9156873E0,2.929956E0,3.6794796E0,1.6213632E-1,6.220425E0,9.6135616E-1,1.9141834E0,3.4409423E0,6.3419294E0,0E0,0E0,7.43575E-1,3.3177376E-1,0E0,4.5882006E0,5.5169973E0,2.5995984E0,3.7377753E0,6.1812773E0,3.329802E0,3.433557E0,0E0,1.7901937E0,0E0,0E0,3.641614E0,2.2463353E0,0E0,0E0,0E0,0E0,0E0,0E0,0E0,0E0,0E0,0E0,0E0,0E0,0E0,0E0,0E0,0E0,0E0,0E0,0E0,0E0,0E0,0E0,0E0,0E0,0E0,0E0,0E0,0E0,0E0,0E0,0E0,0E0,0E0,0E0,0E0,0E0,0E0,0E0,0E0,0E0],"parents":[2147483647,0,0,1,1,2,2,3,3,4,4,5,5,6,6,7,7,8,8,9,9,10,10,11,11,12,12,13,13,15,15,16,16,17,17,18,18,20,20,21,21,22,22,23,23,24,24,25,25,26,26,27,27,28,28,29,29,30,30,31,31,32,32,33,33,34,34,35,35,36,36,39,39,40,40,42,42,43,43,44,44,45,45,46,46,47,47,48,48,50,50,53,53,54,54],"right_children":[2,4,6,8,10,12,14,16,18,20,22,24,26,28,-1,30,32,34,36,-1,38,40,42,44,46,48,50,52,54,56,58,60,62,64,66,68,70,-1,-1,72,74,-1,76,78,80,82,84,86,88,-1,90,-1,-1,92,94,-1,-1,-1,-1,-1,-1,-1,-1,-1,-1,-1,-1,-1,-1,-1,-1,-1,-1,-1,-1,-1,-1,-1,-1,-1,-1,-1,-1,-1,-1,-1,-1,-1,-1,-1,-1,-1,-1,-1,-1],"split_conditions":[-6.889871E-1,1E0,1E0,-1.0564536E0,-7.728038E-1,7.814575E-1,1E0,1E0,-9.6450675E-1,1E0,2.02191E-1,1E0,1E0,-1.4397277E0,3.7961745E-1,-1.3330659E0,-1.6736135E0,1E0,-1.9643992E-1,-3.2121944E-1,-9.6952224E-1,-1.2807106E0,3.3538225E-1,1E0,-2.8400552E-1,1E0,1.108683E0,1E0,4.7438005E-1,1E0,1E0,-2.5424407E0,1E0,-1.5452667E0,1E0,-1.016233E0,-1.7842714E-1,1.1872525E-1,-2.2881193E-1,1E0,8.953665E-1,-3.647298E-1,1E0,1E0,-6.265485E-1,1E0,1E0,9.606945E-1,1E0,-3.187256E-1,1.364249E0,-3.7967482E-1,-2.4964731E-2,2.6355803E-1,-6.089641E-1,-1.338003E-1,2.3439674E-1,1.5243307E-1,-3.0823858E-2,5.9163895E-2,2.6827347E-1,1.4334269E-1,-3.3110037E-1,-2.670678E-1,-7.716398E-2,1.8172912E-1,-1.8091024E-1,-7.0562406E-4,1.225914E-1,-4.205877E-1,-3.8317177E-2,2.1156025E-1,-4.00945E-2,3.596136E-1,1.0631002E-1,-2.6972773E-2,3.197351E-1,-6.555175E-2,-2.6363435E-1,-2.0965588E-1,2.644493E-3,-2.2670113E-1,1.870397E-1,6.930531E-2,3.9281082E-1,-1.7281098E-2,-2.499604E-1,1.2500308E-1,-2.56312E-1,1.3167767E-1,-2.1503606E-1,-1.1479169E-2,-1.9730064E-1,2.4716295E-1,8.953096E-3],"split_indices":[8,32,20,10,10,8,18,2,10,6,10,29,3,10,0,7,8,14,7,0,8,8,10,30,8,14,4,0,7,1,1,10,18,8,0,7,7,0,0,6,7,0,6,47,8,15,27,8,1,0,4,0,0,7,8,0,0,0,0,0,0,0,0,0,0,0,0,0,0,0,0,0,0,0,0,0,0,0,0,0,0,0,0,0,0,0,0,0,0,0,0,0,0,0,0],"split_type":[0,0,0,0,0,0,0,0,0,0,0,0,0,0,0,0,0,0,0,0,0,0,0,0,0,0,0,0,0,0,0,0,0,0,0,0,0,0,0,0,0,0,0,0,0,0,0,0,0,0,0,0,0,0,0,0,0,0,0,0,0,0,0,0,0,0,0,0,0,0,0,0,0,0,0,0,0,0,0,0,0,0,0,0,0,0,0,0,0,0,0,0,0,0,0],"sum_hessian":[1.0253813E3,3.182132E2,7.071682E2,2.8793E2,3.0283205E1,3.110969E2,3.9607132E2,9.069632E1,1.9723367E2,4.5633464E0,2.5719858E1,2.7166376E2,3.9433132E1,3.844247E2,1.1646615E1,7.645761E1,1.4238707E1,1.6298555E1,1.809351E2,1.6544157E0,2.9089305E0,1.2148779E1,1.357108E1,1.858146E2,8.584916E1,2.9808739E1,9.6243925E0,3.268289E0,3.811564E2,1.0675907E1,6.578171E1,3.8042104E0,1.0434496E1,1.3036429E1,3.262126E0,1.3218394E2,4.8751167E1,1.8202252E0,1.0887053E0,2.810902E0,9.337876E0,1.1149992E0,1.2456081E1,7.240126E1,1.13413345E2,1.4990896E1,7.085827E1,2.1478458E1,8.330279E0,6.0530343E0,3.571359E0,1.9062166E0,1.3620723E0,4.3099255E1,3.3805716E2,9.225817E0,1.4500904E0,5.414093E1,1.1640777E1,1.1284306E0,2.6757798E0,2.8346074E0,7.599889E0,8.361196E0,4.675234E0,1.7832564E0,1.4788696E0,1.0808496E2,2.4098984E1,3.3062418E0,4.5444927E1,1.4026269E0,1.4082752E0,7.7175264E0,1.6203504E0,6.5664744E0,5.8896065E0,5.667168E1,1.572958E1,4.449484E0,1.0896386E2,1.3486014E1,1.5048825E0,6.598019E1,4.878079E0,1.0996413E1,1.0482046E1,6.334797E0,1.9954827E0,1.4885908E0,2.0827682E0,3.0156027E1,1.2943228E1,2.6033616E0,3.354538E2],"tree_param":{"num_deleted":"0","num_feature":"48","num_nodes":"95","size_leaf_vector":"1"}},{"base_weights":[1.8493459E-3,-4.8455113E-1,5.595664E-3,-1.4848666E-1,-2.4271543E-1,4.8725948E-2,-4.1272208E-2,4.525971E-2,-1.0112182E-1,1.7653974E-2,3.6900046E-1,-1.8122007E-1,1.5001354E-2,-1.2273008E-1,1.4281219E-1,2.413449E-2,-3.5569632E-1,2.0365031E-1,3.0935115E-1,-2.987807E-1,2.7964648E-2,2.1517487E-1,-5.201773E-2,-6.26787E-3,1.9228382E-1,3.2844296E-1,-5.2491784E-1,-4.825957E-1,1.0315013E-1,-4.169553E-1,3.1826124E-1,7.204365E-2,5.5711925E-1,-2.350685E-1,1.3669313E-2,1.63506E-2,-7.83372E-2,2.0515263E-1,1.800658E-2,1.16973855E-1,-2.3664975E-1,4.338769E-2,-2.564806E-1,9.0421595E-2,-1.7810649E-1,-5.3155735E-2,1.8958965E-1,2.3574951E-1,-1.7448762E-1,-1.526565E-1,1.4642347E-1,-1.2071661E-1,5.4879144E-2,2.0935471E-1,-1.6022745E-1,3.2292557E-1,-8.131308E-2,-1.7979734E-2,1.8129843E-1],"categories":[],"categories_nodes":[],"categories_segments":[],"categories_sizes":[],"default_left":[0,0,0,0,0,0,0,0,0,0,0,0,0,0,0,0,0,0,0,0,0,0,0,0,0,0,0,0,0,0,0,0,0,0,0,0,0,0,0,0,0,0,0,0,0,0,0,0,0,0,0,0,0,0,0,0,0,0,0],"id":20,"left_children":[1,3,5,7,-1,9,11,13,-1,15,17,19,21,-1,-1,23,-1,25,-1,27,29,31,33,35,37,39,41,43,45,47,49,51,53,55,57,-1,-1,-1,-1,-1,-1,-1,-1,-1,-1,-1,-1,-1,-1,-1,-1,-1,-1,-1,-1,-1,-1,-1,-1],"loss_changes":[1.8490994E0,7.256906E-1,2.036599E0,1.9922175E-1,0E0,5.21422E0,3.8057113E0,8.534005E-1,0E0,3.7659883E0,4.8643126E0,3.4159217E0,4.643985E0,0E0,0E0,2.4431825E0,0E0,3.6574328E0,0E0,6.6100855E0,6.689959E0,4.208764E0,3.12369E0,6.294562E0,4.716358E0,2.5973594E0,1.4472549E0,5.501109E0,4.365031E0,4.5131454E0,4.6433353E0,3.3535204E0,4.2836533E0,3.5278542E0,8.380096E0,0E0,0E0,0E0,0E0,0E0,0E0,0E0,0E0,0E0,0E0,0E0,0E0,0E0,0E0,0E0,0E0,0E0,0E0,0E0,0E0,0E0,0E0,0E0,0E0],"parents":[2147483647,0,0,1,1,2,2,3,3,5,5,6,6,7,7,9,9,10,10,11,11,12,12,15,15,17,17,19,19,20,20,21,21,22,22,23,23,24,24,25,25,26,26,27,27,28,28,29,29,30,30,31,31,32,32,33,33,34,34],"right_children":[2,4,6,8,-1,10,12,14,-1,16,18,20,22,-1,-1,24,-1,26,-1,28,30,32,34,36,38,40,42,44,46,48,50,52,54,56,58,-1,-1,-1,-1,-1,-1,-1,-1,-1,-1,-1,-1,-1,-1,-1,-1,-1,-1,-1,-1,-1,-1,-1,-1],"split_conditions":[-1.7920581E0,-1.2689596E0,1.0275197E-1,-1.8008024E0,-2.4271543E-1,7.875277E-1,5.030338E-1,1E0,-1.0112182E-1,7.833822E-1,2.1769785E-5,1E0,6.9920874E-1,-1.2273008E-1,1.4281219E-1,-7.208284E-1,-3.5569632E-1,1E0,3.0935115E-1,7.628563E-1,1E0,1E0,8.6748034E-1,-4.377897E-1,-6.7103773E-1,1.062414E0,1E0,-1.6661644E0,1E0,-7.8919816E-1,1.799599E-1,1E0,1.2585877E0,-1.8801078E-1,1E0,1.63506E-2,-7.83372E-2,2.0515263E-1,1.800658E-2,1.16973855E-1,-2.3664975E-1,4.338769E-2,-2.564806E-1,9.0421595E-2,-1.7810649E-1,-5.3155735E-2,1.8958965E-1,2.3574951E-1,-1.7448762E-1,-1.526565E-1,1.4642347E-1,-1.2071661E-1,5.4879144E-2,2.0935471E-1,-1.6022745E-1,3.2292557E-1,-8.131308E-2,-1.7979734E-2,1.8129843E-1],"split_indices":[7,4,8,7,0,7,8,6,0,7,8,29,8,0,0,4,0,3,0,7,39,15,8,8,4,7,18,10,43,10,8,24,10,7,43,0,0,0,0,0,0,0,0,0,0,0,0,0,0,0,0,0,0,0,0,0,0,0,0],"split_type":[0,0,0,0,0,0,0,0,0,0,0,0,0,0,0,0,0,0,0,0,0,0,0,0,0,0,0,0,0,0,0,0,0,0,0,0,0,0,0,0,0,0,0,0,0,0,0,0,0,0,0,0,0,0,0,0,0,0,0],"sum_hessian":[1.01226794E3,6.756084E0,1.0055119E3,4.0349383E0,2.7211459E0,5.2361456E2,4.8189734E2,2.3651133E0,1.6698252E0,4.7826956E2,4.5345005E1,1.3756465E2,3.4433267E2,1.1755488E0,1.1895645E0,4.7668228E2,1.587269E0,3.733072E1,8.014286E0,8.779567E1,4.9768986E1,8.58134E1,2.5851926E2,4.045077E2,7.217458E1,3.234048E1,4.990239E0,6.0106483E1,2.768919E1,1.9478762E1,3.0290224E1,6.1345898E1,2.44675E1,6.758918E1,1.9093008E2,3.2725955E2,7.724816E1,1.4418205E1,5.775638E1,3.1271036E1,1.0694443E0,1.8330629E0,3.1571763E0,7.247363E0,5.285912E1,1.853065E1,9.158541E0,1.8914001E0,1.7587362E1,4.8195367E0,2.5470686E1,1.112376E1,5.0222137E1,2.1991777E1,2.4757233E0,1.0323738E0,6.655681E1,1.7057352E2,2.0356565E1],"tree_param":{"num_deleted":"0","num_feature":"48","num_nodes":"59","size_leaf_vector":"1"}},{"base_weights":[1.7352785E-3,5.6252307E-3,-4.3353826E-1,-2.9300654E-2,5.4794457E-2,-5.380304E-1,-4.4463375E-3,2.1927005E-3,-3.424414E-1,9.135826E-3,3.6954176E-1,-2.7196234E-1,-2.6752308E-1,-2.2436716E-2,4.9810985E-1,8.529841E-3,-7.734765E-1,3.6909738E-1,-8.234937E-3,-2.2170846E-1,1.0103163E-1,-4.0784976E-3,-3.0307686E-1,3.7240565E-1,2.8098333E-1,7.9698807E-1,-1.3941161E-1,-1.0504385E0,-3.1242773E-1,4.6267912E-1,-1.8335606E-1,-9.5981E-1,2.0648816E-4,-3.8724917E-3,1.3172407E-1,1.5840469E-2,-2.0664062E-1,-1.5918594E-2,2.5092816E-1,2.7278024E-1,6.865245E-2,-7.505007E-2,2.825299E-1,8.802755E-2,-3.5397467E-1,6.341925E-2,-1.7798734E-1,2.8894076E-1,4.933098E-2,-3.745146E-1,-5.700638E-2,-4.33488E-2,1.0951862E-2],"categories":[],"categories_nodes":[],"categories_segments":[],"categories_sizes":[],"default_left":[0,0,0,0,0,0,0,0,0,0,0,0,0,0,0,0,0,0,0,0,0,0,